{"fc1.weight": [[-0.009375764057040215, 0.00681513175368309, -0.035403478890657425, -0.009071528911590576, 0.03098774328827858, 0.011086095124483109, -0.010009080171585083, -0.004410441964864731, 0.035009752959012985, -0.0015195347368717194, -0.03439684957265854, -0.010068988427519798, -0.029360387474298477, -0.0982760563492775, -0.07769251614809036, 0.01056675799190998, -0.01819932460784912, -0.017044788226485252, 0.004083167761564255, -0.012303493916988373, -0.0223794337362051, 0.013596732169389725, 0.019688576459884644, -0.029849329963326454, 0.015587050467729568, -0.03056807816028595, 0.010119020938873291, 0.014717921614646912, -0.019582826644182205, -0.015382368117570877, 0.029486965388059616, -0.021487612277269363, 0.022554002702236176, 0.02948230504989624, -0.09411649405956268, -0.12522654235363007, -0.22336573898792267, -0.34418821334838867, -0.45226794481277466, -0.13018178939819336, -0.15835407376289368, -0.27982524037361145, -0.6559337377548218, -0.28227195143699646, -0.26143741607666016, -0.2800242602825165, -0.5595925450325012, -0.3540506064891815, -0.33024364709854126, -0.19738611578941345, -0.09006833285093307, -0.04476648569107056, 0.03362805023789406, 0.0006380937993526459, 0.01491989940404892, 0.02760949358344078, -0.011803584173321724, 0.027336973696947098, -0.012269075028598309, 0.030911054462194443, -0.02743842639029026, -0.19523800909519196, -0.1865406334400177, -0.23824995756149292, -0.4920545220375061, -1.0025978088378906, -1.3488789796829224, -0.7196792364120483, -0.8560163378715515, -0.9488722681999207, -1.0238051414489746, -1.4345828294754028, -1.2539218664169312, -1.543393611907959, -1.752023696899414, -1.4471807479858398, -1.4554579257965088, -1.168540358543396, -0.9271184802055359, -0.6142707467079163, -0.4361966848373413, -0.12305998057126999, 0.008669767528772354, -0.003542538732290268, 0.011210143566131592, 0.02133135125041008, -0.025990469381213188, -0.09086792916059494, -0.16918431222438812, -0.3330059349536896, -0.5136541724205017, -0.4919678270816803, -0.43290433287620544, -0.41516655683517456, -0.3413182199001312, -0.11964114755392075, -0.2357942909002304, -0.15656670928001404, -0.1549539864063263, -0.19267407059669495, -0.01279749721288681, -0.19973938167095184, -0.41201016306877136, -0.44306063652038574, -0.47934219241142273, -0.5861455798149109, -0.6434935331344604, -0.5760874152183533, -0.6291174292564392, -0.24902813136577606, -0.07894311845302582, -0.012270158156752586, 0.007311668246984482, -0.0356033518910408, -0.1280556619167328, -0.17268560826778412, -0.4598749876022339, -0.8142129778862, -0.5165764689445496, -0.2827225923538208, -0.1998337060213089, -0.018999585881829262, -0.09293603897094727, 0.029788123443722725, -0.16633406281471252, -0.0015327134169638157, -0.13788984715938568, -0.0043264045380055904, -0.14095130562782288, -0.041539501398801804, -0.06375414878129959, -0.11496777087450027, -0.19715707004070282, -0.23044994473457336, -0.12284976989030838, -0.161436066031456, -0.5022242069244385, -0.7437114119529724, -0.4746464192867279, -0.11392638087272644, -0.02916133590042591, -0.008574213832616806, -0.3452660143375397, -0.15296456217765808, -0.6582527756690979, -0.6585830450057983, -0.21194472908973694, -0.13624945282936096, -0.020497886463999748, -0.08475153893232346, 0.0232832171022892, -0.03129386901855469, -0.13139286637306213, 0.12458691000938416, 0.16563071310520172, 0.12186295539140701, -0.0009659008355811238, 0.18920741975307465, 0.19117718935012817, 0.03010442666709423, -0.10623997449874878, -0.022265342995524406, -0.03235635161399841, -0.3628747761249542, -0.6650319695472717, -1.2646918296813965, -0.8228684663772583, -0.21003004908561707, 0.019609887152910233, -0.06209416314959526, -0.46354976296424866, -0.7596563696861267, -0.604318380355835, -0.35939183831214905, -0.09978329390287399, -0.07099147140979767, -0.23528876900672913, -0.35024529695510864, -0.11656827479600906, -0.1227089911699295, -0.07143969088792801, 0.16709405183792114, 0.13767565786838531, 0.016600878909230232, 0.09279315173625946, 0.15831521153450012, 0.17046116292476654, 0.08559542894363403, 0.02817939594388008, 0.18464048206806183, 0.21714667975902557, -0.14906485378742218, -0.7978276610374451, -1.558632731437683, -0.9757187366485596, -0.295947402715683, -0.027101945132017136, -0.31755781173706055, -0.5212183594703674, -0.6648492217063904, -0.7190102934837341, -0.19242779910564423, 0.03344309702515602, -0.15391333401203156, -0.37384936213493347, -0.08715817332267761, 0.020228397101163864, -0.005304181948304176, 0.0077670905739068985, 0.11322217434644699, 0.09454218298196793, 0.061397187411785126, 0.12235633283853531, 0.22882091999053955, 0.20444147288799286, 0.1830713003873825, 0.0392455980181694, 0.029602879658341408, -0.009596282616257668, 0.05782290920615196, -0.30252015590667725, -1.5793153047561646, -1.3044250011444092, -0.37485581636428833, 0.06227531284093857, -0.34472042322158813, -0.2641788125038147, -0.1792004108428955, -0.6452091932296753, -0.24336858093738556, -0.07418438792228699, -0.14914214611053467, -0.10695917159318924, 0.05283910036087036, 0.02245020680129528, -0.04843217134475708, 0.09781182557344437, 0.07369967550039291, 0.13904249668121338, 0.2407081574201584, 0.416260689496994, 0.25814059376716614, 0.18524891138076782, 0.08138450235128403, 0.11600418388843536, 0.06304898858070374, 0.12242122739553452, 0.21235981583595276, -0.11108328402042389, -1.7068259716033936, -1.237349033355713, -0.43815895915031433, -0.11528830975294113, -0.34370100498199463, -0.34825780987739563, -0.22583885490894318, -0.3585973381996155, -0.16386838257312775, -0.20899008214473724, -0.15723039209842682, -0.12083705514669418, 0.024986226111650467, 0.07545909285545349, -0.09412713348865509, -0.00865626335144043, 0.1748674064874649, 0.05312526971101761, -0.08036692440509796, 0.18283946812152863, 0.27088865637779236, 0.2322264164686203, 0.1916661262512207, 0.15567699074745178, -0.05539656803011894, -0.09593930095434189, 0.2195320725440979, 0.07712779194116592, -1.3893648386001587, -1.239991307258606, -0.46624916791915894, -0.101314477622509, -0.27638891339302063, -0.4162731468677521, -0.224343404173851, -0.40311670303344727, -0.03123294562101364, -0.15545585751533508, -0.17236478626728058, -0.09798847883939743, -0.005639947019517422, -0.1812347173690796, -0.010954572819173336, -0.007957306690514088, 0.052664607763290405, -0.0060803028754889965, -0.20362289249897003, -0.045272745192050934, 0.2405332624912262, 0.22495730221271515, 0.09912777692079544, 0.12138300389051437, 0.13072367012500763, 0.10028547793626785, 0.24944955110549927, 0.13372085988521576, -1.0690362453460693, -1.0062882900238037, -0.3117443919181824, -0.08119626343250275, -0.09469432383775711, -0.7069216370582581, -0.5359371304512024, -0.5304045677185059, -0.2997971177101135, -0.001348826801404357, 0.004623189102858305, -0.011046682484447956, -0.21420322358608246, -0.09019458293914795, 0.006478069815784693, -0.1462230384349823, -0.16069476306438446, -0.4507972300052643, -0.6322109699249268, -0.5287041068077087, -0.08193492889404297, -0.0678250640630722, 0.01878540590405464, 0.16435055434703827, 0.2028690129518509, 0.18688379228115082, 0.10926633328199387, 0.20730654895305634, -0.7066202163696289, -0.9068850874900818, -0.2292207032442093, -0.006293759681284428, -0.13517121970653534, -0.6795995831489563, -0.5146931409835815, -0.3983323276042938, -0.12797527015209198, 0.10331292450428009, 0.036562059074640274, -0.10127897560596466, -0.12201771885156631, -0.07194738835096359, -0.016912927851080894, -0.07599558681249619, -0.17497694492340088, -0.6822398900985718, -0.884205162525177, -0.6434463262557983, -0.17886771261692047, -0.11901362240314484, -0.027703797444701195, -0.04368134215474129, 0.099981389939785, 0.17380516231060028, 0.21536985039710999, 0.46789035201072693, -0.22001691162586212, -0.5546644926071167, -0.1926429718732834, 0.026351818814873695, -0.012332012876868248, -0.18490047752857208, -0.4703670144081116, -0.11562375724315643, -0.07916777580976486, 0.19107607007026672, 0.1824001669883728, 0.04525455832481384, 0.06796211749315262, 0.05555582046508789, 0.030054090544581413, -0.02747940644621849, -0.46777549386024475, -0.7850685119628906, -0.9002238512039185, -0.6450690627098083, -0.2681090533733368, -0.0801958292722702, -0.1315278261899948, -0.20077478885650635, -0.08482984453439713, 0.0747082382440567, 0.20885244011878967, 0.3226540982723236, -0.1372448056936264, -0.5898988246917725, -0.25677892565727234, -0.09381307661533356, -0.2135068029165268, -0.3514097034931183, -0.8080778121948242, -0.20431482791900635, 0.14798785746097565, 0.09615147858858109, 0.3143623471260071, 0.17858535051345825, 0.13516342639923096, 0.07111375778913498, 0.16882573068141937, 0.12074436992406845, -0.3268677294254303, -0.8999475836753845, -0.895453691482544, -0.7610127329826355, -0.18223223090171814, -0.104705810546875, -0.13184499740600586, -0.07624206691980362, 0.09289856255054474, 0.05523229390382767, 0.19955909252166748, 0.24984823167324066, -0.04348376393318176, -0.6900827884674072, -0.24809220433235168, -0.11972901225090027, -0.09372152388095856, -0.44050362706184387, -0.901672899723053, 0.05950484797358513, 0.21097972989082336, -0.05510185286402702, 0.27606940269470215, 0.2103075385093689, 0.19167084991931915, 0.19801393151283264, 0.08675941824913025, -0.05945783108472824, -0.680694043636322, -1.0333603620529175, -0.7248814702033997, -0.5443039536476135, -0.2809571921825409, -0.14288052916526794, -0.08851269632577896, 0.10071015357971191, 0.008435366675257683, 0.04960135370492935, 0.1935669183731079, 0.12798096239566803, -0.13033300638198853, -0.7895662784576416, -0.28958550095558167, -0.07236725836992264, -0.13403035700321198, -0.489998459815979, -0.9720127582550049, 0.09651979058980942, 0.19456566870212555, 0.05243925377726555, 0.19232124090194702, 0.2682000696659088, 0.2300691306591034, 0.21302776038646698, 0.13911189138889313, -0.3185310661792755, -0.9467582106590271, -0.7771888971328735, -0.47754520177841187, -0.29920655488967896, -0.040962256491184235, -0.06002885475754738, -0.021025411784648895, 0.14030751585960388, 0.04426473379135132, -0.062388528138399124, 0.11008814722299576, -0.1255267858505249, -0.2967342436313629, -0.720507800579071, -0.08054366707801819, -0.02292168140411377, -0.1219094842672348, -0.5255357623100281, -0.7427220940589905, -0.01962827891111374, 0.04491756856441498, 0.06309240311384201, 0.134612038731575, 0.06369352340698242, 0.22747772932052612, 0.3516484498977661, 0.13540318608283997, -0.28999465703964233, -0.7996557950973511, -0.7267687916755676, -0.41312938928604126, -0.15181255340576172, 0.05892453342676163, -0.08408212661743164, -0.0381375327706337, 0.009412342682480812, -0.034376706928014755, 0.07830563187599182, -0.007611049804836512, -0.16574695706367493, -0.4021874666213989, -0.6368862390518188, -0.07088438421487808, -0.10850902646780014, -0.13102954626083374, -0.7298934459686279, -0.9462481141090393, -0.15607838332653046, -0.10842564702033997, -0.0579000785946846, 0.008066371083259583, 0.21144799888134003, 0.285725861787796, 0.32624197006225586, 0.06345338374376297, -0.31374040246009827, -0.6554951071739197, -0.5006717443466187, -0.26321831345558167, -0.08743700385093689, -0.07493232190608978, -0.03207073360681534, -0.09018652141094208, -0.14400380849838257, -0.12279973924160004, 0.055350691080093384, -0.0678422823548317, -0.284882128238678, -0.4505194425582886, -0.5912113785743713, -0.26060572266578674, 0.02376646362245083, 0.02424725890159607, -0.6030619144439697, -0.6514279842376709, -0.17832578718662262, -0.12696799635887146, 0.019020913168787956, 0.06768075376749039, 0.10136713832616806, 0.03863765299320221, 0.2880087196826935, 0.2638596296310425, 0.07981947809457779, -0.17727534472942352, -0.22456668317317963, -0.16300782561302185, -0.13507020473480225, -0.009625490754842758, -0.07251843810081482, -0.09791402518749237, -0.021868767216801643, 0.018578849732875824, 0.13360391557216644, -0.11682644486427307, -0.14285221695899963, -0.6468089818954468, -0.5823742151260376, -0.19889949262142181, 0.013185091316699982, -0.028338657692074776, -0.5415323972702026, -0.4933567941188812, -0.05390964820981026, 0.07170413434505463, -0.06592268496751785, -0.009184460155665874, 0.05822482332587242, 0.0670292004942894, 0.2778770923614502, 0.37426483631134033, 0.2910133898258209, 0.09988608211278915, -0.07758874446153641, -0.025463202968239784, -0.06497552990913391, -0.0713948905467987, -0.15236155688762665, -0.17543599009513855, -0.18236768245697021, -0.0008648012299090624, 0.02371922694146633, -0.2836291790008545, -0.3956785202026367, -0.7969433069229126, -0.48802468180656433, -0.07310691475868225, -0.031856708228588104, -0.1835668981075287, -0.4401074945926666, -0.3152076005935669, -0.09905607998371124, 0.019108815118670464, -0.06484712660312653, -0.05198976770043373, -0.1008598580956459, 0.026380673050880432, 0.13548260927200317, 0.2578790783882141, 0.2500099241733551, 0.08857746422290802, -0.0058583663776516914, -0.012747789733111858, -0.0661892294883728, -0.2462180107831955, -0.2675189673900604, -0.34686508774757385, -0.18228855729103088, -0.0373261384665966, -0.12841995060443878, -0.37563493847846985, -0.4167414605617523, -0.6444154977798462, -0.07063762098550797, 0.13215546309947968, -0.0234332624822855, -0.0617029070854187, -0.6527286171913147, -0.6632897853851318, -0.5554892420768738, -0.08897753804922104, -0.054177649319171906, -0.03805004432797432, 0.08866310119628906, 0.05901309847831726, 0.08823483437299728, 0.09137255698442459, 0.15519441664218903, 0.3308362662792206, 0.14024165272712708, 0.08576905727386475, -0.04094261676073074, -0.036969639360904694, -0.22050979733467102, -0.11768030375242233, -0.14049947261810303, -0.18361300230026245, -0.20173867046833038, -0.29517537355422974, -0.46508339047431946, -0.297284871339798, 0.004384568892419338, 0.12065862119197845, 0.02745411917567253, 0.00757293775677681, -0.5104064345359802, -0.6664944887161255, -0.7552591562271118, -0.39161354303359985, -0.18024137616157532, 0.005051924381405115, 0.08011612296104431, 0.17798280715942383, 0.27966204285621643, 0.27009114623069763, 0.24346771836280823, 0.24795681238174438, 0.17430883646011353, 0.13408122956752777, 0.002531510777771473, 0.004916798789054155, -0.2547825276851654, -0.4065482020378113, -0.5343541502952576, -0.3779762089252472, -0.3598816990852356, -0.5990439653396606, -0.5420973300933838, -0.23427174985408783, -0.13807770609855652, -0.011523868888616562, 0.0267760269343853, -0.029496731236577034, -0.18809249997138977, -0.7585544586181641, -0.29454848170280457, -0.5775983333587646, -0.44860073924064636, -0.4197086989879608, -0.16484326124191284, -0.071986123919487, 0.015290242619812489, -0.004965003579854965, 0.1913364678621292, 0.20126312971115112, 0.12681584060192108, 0.01928790472447872, -0.16464824974536896, -0.2366562783718109, -0.357776015996933, -0.6374096274375916, -0.849068820476532, -0.9730008840560913, -0.7723526954650879, -0.9618393182754517, -0.6450419425964355, -0.22617530822753906, -0.019829781726002693, 0.012382693588733673, -0.0331856869161129, 0.013361025601625443, -0.09463594853878021, -0.25931406021118164, -0.6966719627380371, -0.9436390399932861, -1.0083091259002686, -1.0211337804794312, -0.9541347026824951, -0.9784878492355347, -1.099818229675293, -1.0680407285690308, -1.2024022340774536, -1.2602838277816772, -1.2524546384811401, -1.2743644714355469, -1.332232117652893, -1.1820735931396484, -1.080074667930603, -1.191601276397705, -0.9149462580680847, -0.7706208229064941, -0.7139717936515808, -0.7891451716423035, -0.4163813292980194, -0.05037722364068031, -0.01862996630370617, -0.034677520394325256, 0.015885353088378906, 0.03075680509209633, 0.01957351341843605, -0.024930911138653755, -0.3602355420589447, -0.6012477278709412, -0.9040126204490662, -1.0416176319122314, -1.265595555305481, -1.23564875125885, -1.4060848951339722, -1.598504662513733, -1.8656259775161743, -1.1489253044128418, -1.019468069076538, -1.0636013746261597, -1.3322917222976685, -0.970391571521759, -1.0049012899398804, -1.1644902229309082, -0.7057695984840393, -0.5437289476394653, -0.398807555437088, -0.35398876667022705, -0.049328532069921494, 0.01967417076230049, 0.030122023075819016, -0.005673173815011978, -0.013363489881157875, 0.02722836658358574, 0.0012266077101230621, -0.013788687065243721, -0.052797187119722366, -0.1251285970211029, -0.2850554287433624, -0.45775264501571655, -0.48263564705848694, -0.49611297249794006, -0.7943418622016907, -0.8333035111427307, -1.0381273031234741, -0.9576489329338074, -0.8820215463638306, -0.7794077396392822, -0.7483123540878296, -0.6512693762779236, -0.5566487908363342, -0.30803364515304565, -0.3159315884113312, -0.40440404415130615, -0.2918887436389923, -0.10746201127767563, -0.03425164148211479, -0.0003621503710746765, 0.013417448848485947, 0.028357189148664474], [0.023701440542936325, -0.026064656674861908, -0.02435818314552307, 0.023644980043172836, -0.033072490245103836, 0.022898390889167786, 0.020888637751340866, -0.00038295984268188477, -0.007863232865929604, 0.0035131052136421204, -0.013249171897768974, -0.0179365836083889, -0.06668665260076523, -0.054012127220630646, 0.01521520409733057, -0.03530089929699898, -0.032532691955566406, -0.024529114365577698, 0.02315404638648033, 0.008265241980552673, 0.027877289801836014, -0.0006793327629566193, 0.03499165549874306, -0.02491678297519684, 0.030196812003850937, 0.0205521397292614, -0.015659917145967484, -0.034994304180145264, 0.020099882036447525, 0.02312096208333969, 0.018435262143611908, 0.027499552816152573, -0.014905042946338654, 0.01913142204284668, 0.010579529218375683, -0.07206501066684723, -0.07222321629524231, -0.2009570449590683, -0.2682229280471802, -0.2518728971481323, -0.27873098850250244, -0.4077284336090088, -0.057989709079265594, -0.14644326269626617, -0.3092324733734131, -0.3986523747444153, -0.30281931161880493, -0.15487873554229736, -0.1292707473039627, -0.06686520576477051, -0.04803693667054176, 0.0037225368432700634, 0.0019641295075416565, -0.02399986982345581, 0.008122649043798447, 0.0027230046689510345, 0.02634601667523384, 0.0009677447378635406, 0.007960201241075993, -0.008997763507068157, -0.01814035326242447, -0.047690510749816895, -0.06803391873836517, -0.2927766442298889, -0.41641074419021606, -0.5135932564735413, -0.5710477232933044, -0.6662093997001648, -0.4881177246570587, -0.20634019374847412, 0.2576074004173279, 0.2531467378139496, 0.06233537197113037, -0.3086775541305542, -0.5701430439949036, -0.46143031120300293, -0.4973882734775543, -0.7007851600646973, -0.4926634728908539, -0.3468311131000519, -0.2873896062374115, -0.061773691326379776, -0.0037360601127147675, -0.029993519186973572, 0.024519741535186768, 0.010915771126747131, 0.07058142870664597, 0.05626793950796127, -0.16364331543445587, -0.32905611395835876, -0.4720529615879059, -0.7636235356330872, -0.9374359250068665, -0.5961005091667175, -0.7836716771125793, -0.9922131896018982, -0.5499763488769531, -0.22501151263713837, -0.33708876371383667, -0.21685363352298737, -0.13893014192581177, -0.41129934787750244, -0.5461098551750183, -0.6318621039390564, -0.6889906525611877, -0.5095623731613159, -0.7026879191398621, -0.771450400352478, -0.6313259601593018, -0.3015991747379303, -0.1083914116024971, -0.019694257527589798, 0.01799728348851204, -0.019562380388379097, -0.005146700888872147, -0.11716171354055405, -0.03253896161913872, -0.3095439672470093, -0.5368284583091736, -0.7332851886749268, -0.37414106726646423, -0.3219490647315979, -0.2062324732542038, -0.35211098194122314, -0.25125280022621155, 0.007993349805474281, -0.015494825318455696, -0.031151477247476578, -0.06000380218029022, -0.21248511970043182, -0.22520525753498077, 0.06714695692062378, 0.008470633067190647, -0.026231449097394943, -0.13121618330478668, -0.2224419116973877, -0.5099439024925232, -0.8993833661079407, -0.4003177583217621, -0.10876580327749252, -0.005239678546786308, -0.025736281648278236, 0.0518907867372036, 0.14161449670791626, 0.10777632892131805, -0.24911579489707947, -0.1410323530435562, -0.45746898651123047, -0.47912508249282837, -0.4756888151168823, -0.3848390579223633, -0.44325965642929077, -0.3496962785720825, -0.1536644846200943, -0.09690839052200317, 0.035350501537323, -0.2065483182668686, -0.350210040807724, -0.16912005841732025, -0.11800184100866318, -0.014805709011852741, 0.13064813613891602, 0.1121753603219986, 0.06052524968981743, -0.14433330297470093, -1.013529658317566, -0.5606376528739929, -0.16953402757644653, -0.03519187122583389, -0.047882966697216034, -0.19170618057250977, -0.11880718916654587, 0.05259036645293236, -0.5096522569656372, -0.2593325972557068, -0.42999574542045593, -0.3745249807834625, -0.49487581849098206, -0.27159935235977173, -0.19085153937339783, -0.3351293206214905, -0.25843867659568787, -0.23706957697868347, -0.32585668563842773, -0.3635537028312683, -0.3751767873764038, -0.1472526639699936, -0.19781821966171265, -0.02015654928982258, -0.003110266989096999, -0.05793408676981926, -0.0592513345181942, -0.3315342962741852, -1.4033622741699219, -0.7099415063858032, -0.2783125042915344, -0.013486074283719063, -0.16809464991092682, -0.1403585821390152, -0.29995816946029663, -0.3707551658153534, -0.728691816329956, -0.6475790739059448, -0.4451143741607666, -0.544015109539032, -0.36627262830734253, -0.2091282606124878, -0.17509764432907104, -0.07085766643285751, -0.16762295365333557, -0.15406516194343567, -0.3530734181404114, -0.30472612380981445, -0.2375895082950592, -0.17282573878765106, -0.10880277305841446, 0.030954746529459953, -0.013131446205079556, -0.12060780078172684, -0.32604658603668213, -0.8987389206886292, -1.332576870918274, -0.8015472888946533, -0.29331734776496887, -0.026161860674619675, -0.2729044258594513, -0.20718899369239807, -0.5967908501625061, -0.34710466861724854, -0.7259048819541931, -0.5655435919761658, -0.3867972195148468, -0.4453357756137848, -0.45883676409721375, -0.22527606785297394, -0.17440475523471832, -0.09611617773771286, 0.04055597260594368, 0.06016707047820091, -0.033870600163936615, -0.20336659252643585, -0.010287814773619175, -0.1215783953666687, -0.1311580091714859, -0.22371038794517517, -0.2929818034172058, -0.3427354693412781, -0.6410946846008301, -1.158042550086975, -1.4850696325302124, -0.7908309698104858, -0.27513715624809265, -0.1406501829624176, -0.17956459522247314, -0.2963464558124542, -0.48656904697418213, -0.5387804508209229, -0.7941579222679138, -0.59405517578125, -0.21773214638233185, -0.3272504508495331, -0.32227012515068054, -0.1572270691394806, -0.03440181910991669, -0.06471520662307739, 0.07205992192029953, 0.26462551951408386, 0.43891724944114685, 0.2155815213918686, 0.010679290629923344, -0.14744217693805695, -0.3088074028491974, -0.399747759103775, -0.3539580702781677, -0.5930721759796143, -0.8359679579734802, -1.1319386959075928, -1.2103426456451416, -0.7552446126937866, -0.3432130217552185, -0.13931886851787567, -0.16143618524074554, -0.3348105251789093, -0.5770249366760254, -0.33753785490989685, -0.7863638401031494, -0.6190106868743896, -0.3522912561893463, -0.11883426457643509, -0.28529536724090576, -0.12028054147958755, -0.003804723499342799, -0.0739978700876236, 0.18143212795257568, 0.5610036849975586, 0.7063809633255005, 0.3185129761695862, 0.04036811366677284, -0.19601179659366608, -0.2636391818523407, -0.39581921696662903, -0.4757867157459259, -0.5198023319244385, -0.9419994354248047, -1.640702724456787, -0.7870311737060547, -0.3958875238895416, -0.12428146600723267, -0.1111999973654747, -0.0982791930437088, -0.1311703622341156, -0.3330073952674866, -0.2251579612493515, -0.4960023760795593, -0.8616900444030762, -0.5137101411819458, -0.40490832924842834, -0.3702700138092041, -0.20284710824489594, -0.19407010078430176, -0.15720044076442719, 0.23017756640911102, 0.6816223859786987, 0.6883766651153564, 0.2505876123905182, -0.0997539609670639, -0.06201284006237984, -0.1868078112602234, -0.17296567559242249, -0.4812659025192261, -0.666124701499939, -0.9343405365943909, -1.1673513650894165, -0.4474033713340759, -0.406105101108551, 0.08262115716934204, -0.02262239158153534, -0.1826130449771881, -0.3201408088207245, -0.1776544153690338, -0.05256173387169838, -0.491270512342453, -0.44144633412361145, -0.5211957693099976, -0.2272539734840393, -0.11645794659852982, -0.3549330532550812, -0.4716870188713074, -0.1048162505030632, 0.2843616008758545, 0.7563369274139404, 0.4751843214035034, 0.14929474890232086, 0.018474964424967766, -0.012845312245190144, -0.21556198596954346, -0.3962985575199127, -0.1263575255870819, -0.345559686422348, -0.6943532228469849, -1.0519187450408936, -0.6001313924789429, -0.40377503633499146, -0.022872215136885643, 0.0921049639582634, -0.11647052317857742, -0.27086758613586426, -0.145822674036026, -0.07524977624416351, -0.42613545060157776, -0.4323599338531494, -0.24614927172660828, 0.054135505110025406, -0.0996645838022232, -0.7419008016586304, -0.6366524696350098, -0.17842082679271698, 0.34078800678253174, 0.5679877996444702, 0.4031447470188141, 0.15608038008213043, 0.23767012357711792, -0.1580316424369812, -0.44876962900161743, -0.6390114426612854, -0.4257897138595581, -0.49863266944885254, -0.715126097202301, -1.0250111818313599, -0.5864299535751343, -0.4452380836009979, -0.149820938706398, -0.05389486625790596, -0.06829721480607986, -0.007806634530425072, 0.06002664193511009, 0.10123784095048904, -0.4749256670475006, -0.6829100251197815, -0.41986438632011414, 0.024019567295908928, -0.24801738560199738, -0.7658140659332275, -0.6111165285110474, -0.09252532571554184, 0.3272051215171814, 0.5479207038879395, 0.3778449594974518, 0.14095865190029144, -0.11573309451341629, -0.5525615811347961, -0.8369044661521912, -0.773771345615387, -0.2847030460834503, -0.45275479555130005, -0.8773566484451294, -0.6593371033668518, -0.40603357553482056, -0.325113981962204, -0.1673734337091446, -0.08360850811004639, -0.009476223029196262, 0.09933806955814362, 0.30095192790031433, -0.048865579068660736, -0.74142986536026, -0.8901867270469666, -0.31160083413124084, -0.11604373157024384, -0.44708216190338135, -0.5173113346099854, -0.1548154652118683, 0.07711423188447952, 0.39874303340911865, 0.5649611353874207, 0.2145012468099594, 0.07767652720212936, -0.38996195793151855, -0.74872887134552, -1.06453275680542, -0.9807252883911133, -0.24237294495105743, -0.48615366220474243, -1.0646919012069702, -1.0542948246002197, -0.5797196626663208, -0.5290634036064148, -0.26935747265815735, -0.015842698514461517, 0.11298063397407532, 0.19358523190021515, -0.43723493814468384, -0.4267050623893738, -0.5969146490097046, -0.8300962448120117, -0.6498279571533203, -0.42536771297454834, -0.0013853582786396146, -0.12343037873506546, -0.133854940533638, -0.11525930464267731, 0.33522459864616394, 0.5260831117630005, -0.010075016878545284, -0.21670132875442505, -0.8096139430999756, -0.9431206583976746, -0.9427165389060974, -0.640364944934845, -0.3832635283470154, -0.62850421667099, -0.9333162903785706, -0.5679464936256409, -0.7542543411254883, -0.27868422865867615, -0.261726975440979, -0.02938002534210682, 0.1261991411447525, -0.07235955446958542, -0.6262176632881165, -0.6156588196754456, -0.7202129364013672, -0.8257309198379517, -0.6233888268470764, -0.12279824167490005, -0.09567668288946152, -0.08615116775035858, -0.2853841483592987, -0.05694236978888512, 0.33007577061653137, 0.48310863971710205, -0.048763975501060486, -0.4733275771141052, -0.7216848731040955, -0.493586927652359, -0.25825756788253784, -0.2252650111913681, -0.331111341714859, -0.23238255083560944, -0.4340534806251526, -0.3643168807029724, -0.6113846302032471, -0.39173731207847595, -0.20932403206825256, -0.05251353234052658, 0.07756543159484863, -0.35466286540031433, -1.014205813407898, -1.1687721014022827, -1.2238247394561768, -1.0233745574951172, -0.505990207195282, -0.046855270862579346, -0.06531836092472076, -0.24461446702480316, -0.19874487817287445, -0.03588389232754707, 0.22444497048854828, 0.2067614048719406, -0.23447071015834808, -0.5045806169509888, -0.2778475284576416, -0.03008624166250229, 0.00603216327726841, 0.10347151756286621, -0.11356589198112488, -0.24068574607372284, -0.3344639539718628, -0.2948440611362457, -0.3984185755252838, -0.3206637501716614, -0.018869316205382347, 0.10654903948307037, -0.03186527267098427, -0.4821319282054901, -0.5081269145011902, -0.95960932970047, -1.3992407321929932, -0.5367910265922546, -0.11354433745145798, -0.06348684430122375, -0.0355721153318882, -0.08324867486953735, -0.10887734591960907, -0.12215171754360199, 0.11787384748458862, -0.04262938350439072, -0.11919503659009933, 0.07345035672187805, -0.0376371406018734, 0.13770774006843567, 0.31158143281936646, 0.10189010947942734, -0.06424041092395782, -0.2145509123802185, -0.14154823124408722, -0.16814449429512024, -0.028600767254829407, -0.3427363336086273, 0.1693609058856964, -0.01110224612057209, -0.16298028826713562, -0.5508902072906494, -0.7566328048706055, -0.6719554662704468, -0.7246155142784119, -0.1906721442937851, -0.13780038058757782, 0.0303705632686615, 0.05734008923172951, 0.08423123508691788, 0.06998616456985474, 0.02091795951128006, -0.09350261837244034, -0.038377199321985245, -0.06627587974071503, 0.17617173492908478, 0.27923843264579773, 0.4181503653526306, 0.26677417755126953, 0.1511189341545105, 0.027876511216163635, -0.17827008664608002, -0.4376400113105774, -0.17118386924266815, -0.002536121755838394, -0.15827275812625885, 0.08253490924835205, 0.06405611336231232, -0.014219868928194046, -0.43806931376457214, -0.6814072728157043, -0.0869586318731308, 0.3459823727607727, 0.20559988915920258, 0.1454508900642395, 0.04329986870288849, 0.1048322543501854, 0.15140271186828613, -0.15714779496192932, -0.21547730267047882, -0.23953348398208618, -0.003644536715000868, 0.09466757625341415, 0.07856441289186478, 0.1426495760679245, 0.3038052022457123, 0.21168139576911926, 0.20555102825164795, 0.18064256012439728, -0.3614857792854309, -0.5062612295150757, -0.1496940702199936, -0.057099226862192154, 0.08581981807947159, -0.012989630922675133, 0.08782084286212921, 0.013443066738545895, -0.38041162490844727, -0.5506548285484314, 0.0474134236574173, 0.7442992329597473, 0.26824042201042175, 0.0474708192050457, -0.02166835404932499, 0.014628574252128601, -0.15923501551151276, -0.37235021591186523, -0.5100316405296326, -0.39521491527557373, -0.0725807398557663, -0.04742550477385521, 0.0191193874925375, 0.2523697018623352, 0.382392019033432, 0.23478347063064575, 0.184960275888443, -0.1032494530081749, -0.5748903155326843, -0.6767746806144714, -0.25983911752700806, -0.09316140413284302, 0.144263356924057, -0.030771875753998756, -0.031686048954725266, -0.010466521605849266, -0.41906535625457764, -0.6089226603507996, -0.3547733724117279, 0.36595797538757324, 0.23791462182998657, -0.020687174052000046, -0.16030150651931763, -0.09154589474201202, -0.13300012052059174, -0.21685725450515747, -0.06284982711076736, -0.1987500935792923, -0.18548350036144257, -0.032417818903923035, 0.0293844286352396, 0.23151372373104095, -0.03772867098450661, -0.05129013583064079, -0.16930897533893585, -0.39033636450767517, -0.6143941283226013, -0.6945988535881042, -0.41268056631088257, -0.05333055183291435, 0.20924927294254303, -0.025721300393342972, -0.00043838098645210266, -0.00511840358376503, -0.1608840823173523, -0.37286657094955444, -0.7659081220626831, -0.16312046349048615, 0.00734349712729454, -0.24088673293590546, -0.3589543104171753, -0.17480318248271942, -0.34198349714279175, -0.31070050597190857, -0.3057721257209778, -0.39827194809913635, -0.3929580748081207, -0.3061501681804657, -0.6342577338218689, -0.19944190979003906, -0.1071038767695427, -0.12507455050945282, -0.15298214554786682, -0.21248529851436615, -0.4024299085140228, -0.4557246267795563, -0.357576459646225, -0.06025712192058563, 0.07769127935171127, 0.03305114433169365, -0.0011181235313415527, 0.0051157064735889435, 0.006787858437746763, -0.253693550825119, -0.7936133146286011, -0.9382745623588562, -0.9352602958679199, -1.0688395500183105, -0.8365196585655212, -0.8746598958969116, -1.446573257446289, -1.5868754386901855, -0.9397443532943726, -0.8742086291313171, -0.8151174187660217, -1.12900972366333, -1.5520039796829224, -1.5674997568130493, -1.7107259035110474, -1.4085619449615479, -1.0298738479614258, -0.7896496653556824, -0.4956754744052887, -0.31084346771240234, -0.13487282395362854, -0.06562851369380951, -0.05881118401885033, -0.03292067348957062, 0.034323278814554214, -0.018674707040190697, -0.01541309803724289, -0.05332999676465988, -0.48304852843284607, -0.6176785826683044, -0.7717669010162354, -0.92596435546875, -1.1751009225845337, -1.5047804117202759, -0.8987764120101929, -1.0787328481674194, -1.339820384979248, -1.4582765102386475, -1.1308339834213257, -0.8541234731674194, -0.9879733920097351, -1.4888454675674438, -1.1552397012710571, -1.0098063945770264, -0.7649050951004028, -0.42523524165153503, -0.2906233072280884, -0.1315319538116455, -0.001576740643940866, -0.025692623108625412, 0.0026523545384407043, 0.01218460500240326, -0.010305702686309814, -0.019068075343966484, -0.02368367649614811, 0.007553566247224808, -0.038281261920928955, -0.007456975523382425, -0.06047948822379112, -0.0707104504108429, -0.1294620782136917, -0.18428827822208405, -0.4001980125904083, -0.5149675011634827, -0.46877604722976685, -0.5378351211547852, -0.5169782638549805, -0.5161603689193726, -0.3793313801288605, -0.28042909502983093, -0.21125878393650055, -0.2399577647447586, -0.10938362777233124, -0.028669964522123337, -0.03456301987171173, -0.009049645625054836, -0.0071539804339408875, 0.016126766800880432, 0.023133426904678345, -0.011745406314730644], [0.002133842557668686, -0.013151807710528374, -0.01081874594092369, 0.03160926327109337, 0.019828494638204575, 0.021518543362617493, 0.016163259744644165, -0.03540241718292236, -0.02931440807878971, 0.014150276780128479, 0.03145984187722206, -0.004744956269860268, -0.03063371777534485, 0.02371339313685894, 0.08095333725214005, 0.03298843279480934, 0.01730731502175331, 0.006613437086343765, -0.012245969846844673, -0.010954700410366058, 0.03157511726021767, 0.03389286622405052, 0.009744901210069656, -0.018866607919335365, -0.006378918886184692, 0.0036686882376670837, 0.03150993958115578, -0.0005306005477905273, 0.0072391219437122345, -0.02323596179485321, 0.030833404511213303, 0.019954588264226913, -0.03500602766871452, -0.09519897401332855, -0.4262612760066986, -0.4509033262729645, -0.29645416140556335, -0.27605685591697693, -0.449443519115448, -0.5806983709335327, -0.7682816386222839, -0.6646608114242554, -0.45628827810287476, -0.06208375468850136, 0.21392259001731873, -0.13170400261878967, -0.7864134907722473, -0.6368014812469482, -0.5316601395606995, -0.38541120290756226, -0.2440086156129837, -0.12627428770065308, -0.0007374361157417297, 0.01575201004743576, 0.010403897613286972, -0.01621600240468979, 0.02968296781182289, 0.013867679983377457, -0.05822000280022621, -0.14042869210243225, -0.3680609166622162, -0.3608745336532593, -0.4024643301963806, -0.3396855890750885, -0.08165813237428665, 0.12996068596839905, 0.09223560243844986, 0.04006798565387726, 0.14269325137138367, -0.0838342010974884, -0.1679711788892746, -0.1223096251487732, 0.031686484813690186, -0.05952483043074608, -0.3435940444469452, -0.7036883234977722, -0.9871275424957275, -0.9490687847137451, -0.8700435757637024, -0.31945961713790894, -0.037815406918525696, 0.04163581132888794, 0.023732174187898636, 0.01718958094716072, 0.004354897886514664, 0.014894545078277588, -0.07821504026651382, -0.29431337118148804, -0.37491247057914734, -0.1297479271888733, 0.05598041042685509, 0.09781022369861603, 0.031709447503089905, 0.33370330929756165, 0.28870314359664917, 0.21139326691627502, 0.21826845407485962, 0.29682281613349915, 0.15958070755004883, 0.03205401077866554, 0.06866535544395447, -0.08518126606941223, -0.22670558094978333, -0.35002779960632324, -0.4166245758533478, -0.5115945935249329, -0.6378305554389954, -0.915152907371521, -0.5950883030891418, -0.23228898644447327, -0.12767282128334045, -0.006253885105252266, 0.006508208811283112, -0.09023018181324005, -0.2299399971961975, -0.30021679401397705, -0.23977534472942352, -0.07824386656284332, 0.25963565707206726, 0.011882838793098927, 0.05895356088876724, 0.1958286166191101, 0.18594567477703094, 0.1582571417093277, 0.15158815681934357, 0.07142812013626099, 0.1735263615846634, 0.09985431283712387, 0.05815613642334938, -0.016621818765997887, -0.04646533355116844, -0.22210738062858582, -0.19152936339378357, -0.3899227976799011, -0.7332322597503662, -0.9889788627624512, -1.1537929773330688, -0.5665322542190552, -0.3993937075138092, -0.12533865869045258, 0.011069178581237793, -0.031065311282873154, -0.15840135514736176, -0.2284654676914215, -0.1356135457754135, -0.10359443724155426, -0.07812149077653885, -0.11260548233985901, 0.0673760399222374, 0.03710753098130226, 0.06971817463636398, 0.10600310564041138, 0.13314200937747955, 0.08052105456590652, 0.11018138378858566, 0.11754760891199112, 0.22545126080513, 0.11978501826524734, 0.05158107727766037, -0.052345938980579376, 0.004040168132632971, -0.03841652348637581, -0.14861086010932922, -0.5331164002418518, -0.9955219626426697, -0.8208523988723755, -0.8491355776786804, -0.1486097127199173, 0.008661217987537384, -0.11278136819601059, -0.2194751799106598, -0.20889447629451752, 0.08151992410421371, 0.058090176433324814, 0.06656936556100845, -0.014252722263336182, -0.05564709007740021, 0.006711382884532213, 0.07402534782886505, 0.004487686790525913, -0.012956204824149609, 0.027963338419795036, 0.05958323925733566, 0.08668345957994461, 0.08783464878797531, 0.004142973572015762, -0.0564698800444603, -0.08613944053649902, -0.13013851642608643, -0.12236747145652771, -0.19801564514636993, -0.608267068862915, -0.9726889133453369, -1.4558683633804321, -0.980098307132721, -0.38725441694259644, 0.006476786453276873, -0.35028621554374695, -0.2357221394777298, -0.18160367012023926, 0.22060801088809967, 0.05528676509857178, 0.09334339201450348, -0.02600286155939102, 0.08094260841608047, -0.02828846126794815, -0.0028124277014285326, 0.06467511504888535, 0.024802541360259056, 0.12366040796041489, 0.04547014459967613, -0.027730563655495644, -0.06096278131008148, -0.21597342193126678, -0.13347621262073517, -0.09851036220788956, -0.14167562127113342, -0.026477394625544548, 0.018407201394438744, -0.6682491302490234, -1.2302254438400269, -1.201004147529602, -0.8956683874130249, -0.5366215109825134, -0.0689454898238182, -0.2114233821630478, -0.18095427751541138, -0.2749718427658081, 0.20727907121181488, -0.0006692686001770198, -0.03439706936478615, -0.007416476961225271, -0.008617861196398735, -0.04945990443229675, 0.1512690633535385, 0.06349760293960571, 0.005459301173686981, -0.021083973348140717, 0.06479810178279877, 0.005759972147643566, -0.0013781730085611343, -0.007030842360109091, -0.09495669603347778, 0.10319579392671585, 0.033673640340566635, -0.07792762666940689, -0.0535285621881485, -0.16409744322299957, -1.753434658050537, -1.7073249816894531, -1.1755262613296509, -0.3863525092601776, -0.07112979888916016, -0.38229990005493164, -0.3564736843109131, -0.11785174161195755, 0.16771754622459412, 0.21946480870246887, -0.06554484367370605, -0.06856664270162582, -0.0421985387802124, 0.024594737216830254, 0.18655619025230408, 0.04359868913888931, 0.010642113164067268, 0.04210268333554268, 0.1300012618303299, 0.20134489238262177, 0.08492956310510635, 0.06330083310604095, 0.022691942751407623, -0.011157057248055935, -0.007809497881680727, -0.10161477327346802, -0.09670361131429672, -0.13406839966773987, -1.5626492500305176, -1.6124625205993652, -0.7263054251670837, -0.5172078609466553, -0.11507736146450043, -0.3918127119541168, -0.2990284860134125, -0.1550590842962265, -0.2012825459241867, 0.2551060914993286, 0.18949267268180847, -0.1125490739941597, -0.11140697449445724, -0.11078868061304092, -0.10508884489536285, -0.11480418592691422, -0.1549350768327713, -0.3154645562171936, -0.1510554850101471, -0.13167904317378998, 0.023495526984333992, 0.053000885993242264, 0.012243470177054405, -0.019001204520463943, -0.031012410297989845, -0.2056182324886322, -0.13788661360740662, -0.33104991912841797, -0.966275691986084, -0.7482575178146362, -0.6439611315727234, -0.44339868426322937, -0.12206042557954788, -0.33937138319015503, -0.5502762794494629, -0.6464344263076782, -0.32465505599975586, 0.00482505839318037, -0.2335072159767151, -0.45690810680389404, -0.5232375264167786, -0.5581884980201721, -0.7355737686157227, -0.6333566904067993, -0.6558246612548828, -0.8416686058044434, -0.6803028583526611, -0.45774054527282715, -0.22298040986061096, -0.2632453441619873, -0.08584246039390564, 0.09982290863990784, -0.0847397893667221, -0.08958058804273605, -0.18013440072536469, -0.34536534547805786, -0.4791561961174011, -0.06727895885705948, -0.43135035037994385, -0.38455983996391296, -0.07176212221384048, -0.33638298511505127, -0.6383909583091736, -0.7520930767059326, -0.565282940864563, -0.6152617931365967, -0.915531575679779, -0.96443772315979, -0.5937926769256592, -0.6269047260284424, -0.5934429168701172, -0.6185719966888428, -0.6094245314598083, -0.5840026140213013, -0.5260961055755615, -0.4492216408252716, -0.3841588795185089, -0.32088837027549744, -0.18204505741596222, 0.025538049638271332, -0.09027446061372757, -0.09939710795879364, -0.2650885581970215, -0.4589923322200775, -0.013075089082121849, 0.4644676148891449, 0.2701950669288635, 0.05615914240479469, -0.04853015020489693, -0.22052298486232758, -0.2911679148674011, -0.7523416876792908, -0.9340496063232422, -1.000071406364441, -0.9681229591369629, -0.7897263765335083, -0.4672817289829254, -0.34338340163230896, -0.24499663710594177, -0.09666893631219864, -0.11544948816299438, -0.028562478721141815, -0.13581208884716034, -0.33665159344673157, -0.2726215720176697, -0.198550745844841, -0.18916241824626923, -0.16907696425914764, -0.17483270168304443, -0.13638246059417725, -0.25318846106529236, -0.23511692881584167, 0.3324424624443054, 0.6236150860786438, 0.786777138710022, 0.25129130482673645, -0.09343956410884857, -0.1864061802625656, -0.2716248333454132, -0.4119080901145935, -0.6823909282684326, -0.6720157861709595, -0.4381113350391388, -0.23383116722106934, -0.14143472909927368, -0.13935425877571106, -0.11255505681037903, 0.008751917630434036, -0.044469088315963745, 0.12093176692724228, 0.010348456911742687, -0.15737444162368774, -0.15598036348819733, -0.24808065593242645, -0.13584141433238983, -0.1889638751745224, -0.062160611152648926, -0.25524768233299255, -0.2513980567455292, -0.1186414584517479, 0.20078891515731812, 0.5121257305145264, 0.8902849555015564, 0.2605125308036804, -0.07078776508569717, -0.15455950796604156, -0.35173308849334717, 0.12694518268108368, -0.0518510565161705, 0.09292662888765335, 0.12259313464164734, -0.08919329941272736, -0.04641714692115784, -0.06762045621871948, -0.027275918051600456, -0.02614467404782772, -0.03449445590376854, 0.11787769198417664, 0.014839922077953815, -0.00197925535030663, -0.0764675885438919, -0.1542145013809204, -0.15186692774295807, -0.04878130182623863, -0.18710045516490936, -0.20347709953784943, -0.36906200647354126, -0.31228530406951904, 0.33834344148635864, 0.5097526907920837, 0.8637188673019409, 0.36035406589508057, -0.009508594870567322, -0.17256824672222137, -0.23808465898036957, 0.33382341265678406, 0.2216433584690094, 0.2146763801574707, 0.21118265390396118, -0.07653709501028061, -0.19484737515449524, 0.07806514203548431, 0.16073156893253326, 0.1471601128578186, 0.2311646193265915, 0.2429221272468567, 0.10922902822494507, -0.02189737744629383, 0.06055915728211403, 0.09820552915334702, -0.031484369188547134, -0.07866024971008301, -0.1607603132724762, 0.10345116257667542, 0.09047123789787292, 0.013830682262778282, 0.2674064040184021, 0.9432948231697083, 0.9560800790786743, 0.350239634513855, 0.0029476024210453033, -0.2582452595233917, -0.10638754069805145, 0.20337679982185364, 0.18604154884815216, 0.23710618913173676, 0.21667036414146423, 0.06632308661937714, -0.015887990593910217, 0.1261684149503708, 0.24303460121154785, 0.2540839910507202, 0.2773345410823822, 0.25585854053497314, 0.011350931599736214, 0.04121299088001251, -0.04879612475633621, -0.04747295752167702, 0.04279522970318794, -0.054912783205509186, -0.07354839146137238, 0.06264162063598633, 0.06692607700824738, -0.052459850907325745, 0.14875514805316925, 0.9715179800987244, 0.7043119072914124, 0.559364378452301, -0.17619848251342773, -0.2907353639602661, -0.38337790966033936, 0.0026768541429191828, 0.17066918313503265, 0.25629717111587524, 0.13872455060482025, 0.2232798933982849, 0.08787928521633148, 0.05583181604743004, 0.12804320454597473, 0.12921768426895142, 0.23592227697372437, 0.22269219160079956, 0.06938336044549942, -0.025229906663298607, 0.06251206248998642, 0.1914406716823578, 0.0776510164141655, 0.05605720728635788, -0.060908637940883636, 0.04000881686806679, 0.11379703134298325, 0.1736801564693451, 0.4553428292274475, 0.8557479381561279, 0.46987149119377136, 0.18795661628246307, -0.05180342495441437, -0.3053540289402008, -0.4765439033508301, -0.3437730669975281, 0.04729115962982178, 0.0008527435129508376, -0.002876585815101862, 0.25908219814300537, 0.18326888978481293, 0.177979975938797, 0.20056962966918945, 0.17107142508029938, 0.17435115575790405, 0.25810348987579346, 0.15846744179725647, 0.12980647385120392, 0.2096308022737503, 0.17317688465118408, 0.05363410711288452, -0.06578584760427475, 0.06673026829957962, 0.14634743332862854, 0.25136327743530273, 0.10578116029500961, 0.1396588832139969, 0.693941593170166, 0.6960758566856384, 0.0028416214045137167, -0.00332028791308403, -0.1908077895641327, -0.18208184838294983, -0.10784411430358887, 0.0892316997051239, 0.04340939596295357, 0.09161250293254852, 0.2786482274532318, 0.15820398926734924, 0.1679854840040207, 0.19724106788635254, 0.22603432834148407, 0.16248862445354462, 0.08841381222009659, 0.0024441240821033716, 0.007653290871530771, 0.07889838516712189, -0.038196004927158356, 0.06959137320518494, 0.17311373353004456, 0.19505371153354645, 0.22794201970100403, 0.12838809192180634, 0.08719535917043686, 0.0891202837228775, 0.543926477432251, 0.4739645719528198, -0.09346666187047958, -0.050327036529779434, -0.15852972865104675, -0.04711786285042763, -0.05615605041384697, -0.006755370181053877, -0.007924850098788738, 0.04570360854268074, 0.04410833120346069, -0.030805423855781555, 0.16950802505016327, 0.0852849930524826, 0.1219853088259697, -0.0038053463213145733, 0.06921730190515518, -0.010751611553132534, -0.10095399618148804, 0.05309722572565079, 0.16739118099212646, 0.25491267442703247, 0.35648009181022644, 0.007461696397513151, 0.034884270280599594, 0.0771445706486702, 0.301914244890213, 0.2053212970495224, 0.4085416793823242, 0.1379755586385727, -0.06722760945558548, -0.09581883996725082, -0.1410934329032898, -0.08519311994314194, 0.10914912074804306, 0.1632901132106781, 0.10067858546972275, 0.19359441101551056, 0.23300427198410034, 0.2046087086200714, 0.22165314853191376, 0.15544767677783966, 0.11701302975416183, 0.06747707724571228, 0.006004393100738525, -0.07193300873041153, -0.09530505537986755, -0.033460937440395355, 0.010619006119668484, 0.19520288705825806, 0.18449312448501587, 0.1285414695739746, 0.029745282605290413, 0.08171859383583069, 0.09342087805271149, 0.17268484830856323, 0.206295907497406, -0.22040009498596191, -0.10460773855447769, 0.031068895012140274, 0.0221213661134243, -0.29653844237327576, -0.29010725021362305, -0.12444301694631577, -0.14407536387443542, -0.035809535533189774, 0.10075689852237701, 0.05668431147933006, 0.07338113337755203, 0.02538452483713627, 0.05659542977809906, 0.09928740561008453, -0.07347702234983444, -0.051990263164043427, -0.12641720473766327, -0.07664299011230469, -0.040809325873851776, 0.22277066111564636, 0.2598336338996887, 0.24869133532047272, 0.24005521833896637, 0.3279207646846771, 0.16528762876987457, 0.13107450306415558, 0.14164330065250397, -0.2221563309431076, 0.010468561202287674, -0.024640455842018127, 0.021735332906246185, -0.32820114493370056, -0.6085398197174072, -0.694533109664917, -0.8767730593681335, -0.6259005665779114, -0.49596911668777466, -0.17909862101078033, -0.20315583050251007, -0.30455538630485535, -0.20804986357688904, 0.04443873465061188, -0.07560734450817108, 0.13018321990966797, -0.033364150673151016, -0.0929601639509201, 0.06236840412020683, 0.15155018866062164, -0.014051389880478382, -0.05677397549152374, 0.13725893199443817, -0.07116164267063141, 0.05649587884545326, 0.4600101709365845, 0.3491142690181732, 0.058412082493305206, 0.022412583231925964, 0.03407434746623039, -0.006847202777862549, -0.19617578387260437, -0.3812527358531952, -0.7232387065887451, -1.3653197288513184, -0.9995195865631104, -1.2688331604003906, -1.4399876594543457, -1.516229510307312, -1.384804606437683, -1.3087695837020874, -1.1248304843902588, -0.7385091781616211, -0.300447553396225, -0.21310481429100037, -0.5007112622261047, -0.40560296177864075, -0.6595792174339294, -0.7211121320724487, -0.6760265827178955, -0.5850968956947327, -0.8116657733917236, -0.7307515144348145, -0.44089314341545105, 0.012856624089181423, 0.07869037240743637, -0.0313226692378521, -0.03566860407590866, -0.007613711059093475, 0.030911777168512344, -0.10707985609769821, -0.6992879509925842, -0.991343080997467, -1.1170752048492432, -1.0767524242401123, -1.2418657541275024, -1.5240745544433594, -1.6992995738983154, -1.509395956993103, -1.972414255142212, -1.6201934814453125, -1.8862082958221436, -1.3051284551620483, -1.278167963027954, -1.3606209754943848, -1.4603523015975952, -1.4819644689559937, -0.9572910666465759, -0.8901394605636597, -0.6084158420562744, -0.5117147564888, -0.06266489624977112, 0.011935271322727203, 0.022575609385967255, 0.005570780485868454, 0.03503062203526497, 0.03351244702935219, -0.033250465989112854, 0.031160075217485428, 0.021345628425478935, -0.06516127288341522, -0.14886368811130524, -0.2494131177663803, -0.2775645852088928, -0.46450281143188477, -0.5943607687950134, -0.6634947061538696, -0.8545336723327637, -0.9369228482246399, -0.9180379509925842, -0.9846131205558777, -0.8396064043045044, -0.7140123844146729, -0.5933440327644348, -0.4754332900047302, -0.2922258675098419, -0.38071489334106445, -0.24487826228141785, -0.09545756876468658, 0.0019733011722564697, -0.009960895404219627, -0.018296174705028534, 0.028249550610780716], [-0.009258368983864784, -0.031254615634679794, -0.025692954659461975, 0.02856779471039772, -0.026778366416692734, 0.00971280038356781, 0.0012315399944782257, 0.02870386466383934, -0.024712488055229187, 0.010793562978506088, -0.022428005933761597, 0.030572231858968735, -0.08506780117750168, -0.15375807881355286, -0.0819384753704071, -0.04056756943464279, -0.008017076179385185, -0.028963634744286537, -0.023071035742759705, 0.017716683447360992, 0.0025748200714588165, -0.025709256529808044, -0.024884000420570374, 0.018949631601572037, 0.02551378309726715, 0.02758481726050377, 0.030378226190805435, 0.035498861223459244, -0.00443645566701889, -0.0018764510750770569, 0.002371847629547119, 0.012206170707941055, -0.03505665436387062, -0.03179735690355301, -0.13112878799438477, -0.2700153589248657, -0.3180987238883972, -0.3250914514064789, -0.5168464779853821, -0.518940269947052, -0.49742594361305237, -0.6942834258079529, -0.5457240343093872, -0.6351033449172974, -0.7766274809837341, -0.6571424603462219, -0.5668291449546814, -0.5061706304550171, -0.34543541073799133, -0.187678262591362, -0.06897448003292084, -0.041745904833078384, 0.003666900098323822, -0.030086645856499672, 0.00580582395195961, 0.003589462488889694, -0.01866004802286625, 0.02986856922507286, -0.006978441961109638, -0.08892133831977844, -0.0629752054810524, -0.10605643689632416, -0.2742268741130829, -0.6419428586959839, -0.8356488943099976, -1.1150658130645752, -0.8085959553718567, -0.49596789479255676, -0.738737940788269, -0.9755535125732422, -1.007453203201294, -1.0156928300857544, -0.851165235042572, -0.6183115839958191, -0.6445596814155579, -0.9761759042739868, -1.0357396602630615, -0.9692738056182861, -0.7663238644599915, -0.5917447805404663, -0.25795406103134155, -0.019656339660286903, 0.014990601688623428, -0.0343247726559639, 0.022604137659072876, -0.0019048824906349182, -0.17240899801254272, -0.1902277171611786, -0.14025630056858063, -0.007191429380327463, 0.0845237672328949, -0.12788888812065125, 0.027372077107429504, -0.1064436137676239, -0.0763397291302681, 0.19384600222110748, 0.29631391167640686, 0.12253544479608536, 0.2116837203502655, 0.1473482996225357, 0.1055084839463234, 0.1408071666955948, 0.12035825103521347, 0.06759490817785263, 0.07958781719207764, -0.31519004702568054, -0.7856534719467163, -0.8152984976768494, -0.6297654509544373, -0.36263808608055115, -0.04568485543131828, 0.020592819899320602, -0.025262534618377686, 0.08797622472047806, -0.1630128026008606, 0.09720516949892044, 0.07622318714857101, 0.29575467109680176, 0.29023703932762146, 0.16186285018920898, 0.19253376126289368, 0.08384634554386139, 0.14023154973983765, 0.2447313666343689, 0.2626485824584961, 0.1959354430437088, 0.1254587024450302, 0.10870549827814102, 0.19111141562461853, 0.019290942698717117, 0.14401397109031677, 0.06473898142576218, -0.1894679218530655, -0.359018474817276, -0.2103862166404724, -1.1166026592254639, -1.5753400325775146, -1.3782488107681274, -0.3227459788322449, -0.11171988397836685, 0.027667809277772903, 0.02250637114048004, -0.05129994451999664, 0.28533637523651123, 0.217726930975914, 0.3041450083255768, 0.24578791856765747, 0.133665531873703, -0.013984632678329945, 0.12140282243490219, 0.14614354074001312, 0.07865524291992188, 0.04589139670133591, 0.06699950248003006, 0.0677783265709877, 0.13622255623340607, 0.1491282433271408, 0.032069552689790726, 0.015411430038511753, 0.05965132638812065, -0.14341913163661957, -0.2200850546360016, -0.3278366029262543, -0.6118566393852234, -0.8132646083831787, -1.8405122756958008, -0.8093650937080383, -0.2096841037273407, -0.02454601228237152, 0.08866335451602936, -0.1361379772424698, 0.22269956767559052, 0.06513724476099014, 0.1174861267209053, 0.13622654974460602, 0.019296294078230858, 0.03154901787638664, 0.1905030757188797, 0.1862953007221222, 0.08978017419576645, 0.052937090396881104, 0.17307938635349274, 0.07681634277105331, 0.15348635613918304, 0.17488780617713928, 0.055384762585163116, 0.05749639496207237, -0.09816499799489975, -0.09214895218610764, -0.03806055337190628, -0.21756428480148315, -0.39275237917900085, -0.6899615526199341, -2.078437566757202, -1.248288869857788, -0.3307568430900574, -0.016397681087255478, 0.21397177875041962, -0.355084091424942, 0.17643702030181885, 0.2003493309020996, 0.16490685939788818, 0.08134082704782486, 0.043608658015728, 0.002384285908192396, 0.03495960682630539, -0.013888463377952576, 0.03509646654129028, 0.13468040525913239, 0.09667611867189407, 0.20695234835147858, 0.15094082057476044, 0.021947070956230164, 0.06445645540952682, 0.005421600770205259, 0.016226250678300858, -0.034126996994018555, -0.23783843219280243, -0.23295797407627106, -0.4168054759502411, -1.0879619121551514, -2.3527650833129883, -1.1441650390625, -0.46203887462615967, -0.13066962361335754, -0.22770969569683075, -0.40136462450027466, 0.038756113499403, 0.20589008927345276, 0.06327153742313385, 0.01719718612730503, 0.05416951701045036, -0.07975172251462936, -0.018771907314658165, 0.05552736669778824, 0.02651986852288246, 0.041235607117414474, 0.06878736615180969, 0.15264281630516052, 0.15985432267189026, 0.09467624127864838, 0.061086416244506836, 0.15120328962802887, 0.08301765471696854, 0.01395158376544714, -0.005325149279087782, 0.110206238925457, -0.5654184222221375, -1.6122082471847534, -2.223318338394165, -1.146215558052063, -0.3231967091560364, -0.13515686988830566, -0.47219470143318176, -0.46407708525657654, 0.051150448620319366, 0.2712462842464447, 0.0008353824960067868, 0.1364641785621643, 0.12921419739723206, 0.03409253805875778, -0.045023851096630096, -0.1717529296875, -0.32573312520980835, -0.2505996525287628, -0.10395243018865585, 0.25173503160476685, 0.3291195333003998, 0.21047957241535187, 0.12353268265724182, 0.08430149406194687, 0.17187613248825073, 0.22740758955478668, 0.12782691419124603, 0.27748924493789673, -0.36866068840026855, -2.276334762573242, -1.4158512353897095, -1.1853060722351074, -0.33982977271080017, -0.1456373631954193, -0.591660737991333, -0.4187632203102112, 0.46406814455986023, 0.03195361793041229, -0.11390820890665054, -0.03185588866472244, -0.13745546340942383, -0.33358365297317505, -0.5104484558105469, -0.508477509021759, -0.4713296890258789, -0.449496328830719, -0.019401224330067635, 0.13998419046401978, 0.14427371323108673, 0.20063364505767822, 0.1481059491634369, 0.16090479493141174, 0.1663053035736084, 0.16779957711696625, 0.11292093247175217, 0.1304687261581421, -0.2702118158340454, -2.1969974040985107, -1.1730655431747437, -1.1443061828613281, -0.24302217364311218, -0.23606429994106293, -0.5758664608001709, -0.5189977288246155, 0.42617130279541016, 0.1046183630824089, -0.3867122530937195, -0.3371886909008026, -0.5285778045654297, -0.5294026732444763, -0.4657762050628662, -0.36665675044059753, -0.23487985134124756, -0.1567711979150772, 0.016515877097845078, 0.09105873107910156, 0.07118984311819077, 0.025670018047094345, 0.14104847609996796, 0.061883579939603806, 0.083283431828022, 0.14391100406646729, -0.12361202389001846, -0.20164091885089874, -0.45222970843315125, -1.4429364204406738, -0.7385686635971069, -0.7328987121582031, -0.23373709619045258, -0.12074514478445053, -0.4032595157623291, -0.6132322549819946, -0.09249964356422424, -0.21183808147907257, -0.38200274109840393, -0.45441338419914246, -0.40036362409591675, -0.4224458634853363, -0.21780018508434296, -0.06650426983833313, -0.13333094120025635, 0.010704929940402508, 0.07827295362949371, 0.22890688478946686, 0.03531988337635994, 0.05724659562110901, 0.003793033305555582, 0.0678919181227684, -0.06505218893289566, -0.15754851698875427, -0.6300111413002014, -0.7190631628036499, -0.790381908416748, -1.2323808670043945, -0.2157808542251587, -0.680587649345398, -0.19752433896064758, -0.07923240214586258, -0.37430208921432495, -0.7707777619361877, -0.2918749451637268, -0.49187803268432617, -0.43723297119140625, -0.4032933712005615, -0.43161526322364807, -0.27085787057876587, -0.11979901790618896, -0.1878952533006668, -0.19830091297626495, -0.03883759304881096, 0.19791610538959503, 0.1678602695465088, -0.07824467122554779, -0.014564679935574532, 0.05676811560988426, 0.08084961771965027, -0.1524108201265335, -0.3890034556388855, -0.5478087663650513, -0.775082528591156, -0.5836740732192993, -0.8631587028503418, -0.7467716336250305, -0.827100396156311, -0.19123761355876923, -0.1379690319299698, 0.050451070070266724, -0.3380347192287445, -0.29100096225738525, -0.23644383251667023, -0.44262558221817017, -0.4416661262512207, -0.39835596084594727, -0.18387696146965027, -0.16318067908287048, -0.21486440300941467, -0.18377889692783356, 0.04927930608391762, 0.08771073818206787, 0.06102363020181656, -0.02694995328783989, -0.06481040269136429, -0.05786250904202461, -0.07597273588180542, -0.1744193434715271, -0.21775901317596436, -0.14993272721767426, -0.3773125410079956, -0.3051944673061371, -0.5598214268684387, -1.054534673690796, -0.8359017372131348, -0.19573312997817993, -0.11319942027330399, 0.0034862167667597532, 0.2811976969242096, -0.04970874637365341, -0.25184735655784607, -0.3112558424472809, -0.316995769739151, -0.4102475047111511, -0.4302450716495514, -0.2601798176765442, -0.18908561766147614, -0.07638296484947205, 0.056734099984169006, 0.04525880888104439, 0.10758747160434723, 0.046697765588760376, -0.12264937162399292, -0.12767350673675537, -0.12133605778217316, 0.04165103659033775, 0.07631939649581909, 0.031096789985895157, 0.1333441287279129, 0.27699482440948486, -0.026779605075716972, -1.557430624961853, -0.46254903078079224, -0.37477627396583557, -0.09652657061815262, 0.13427986204624176, 0.31650057435035706, 0.31142863631248474, 0.19706600904464722, -0.016011610627174377, -0.2720353603363037, -0.281259149312973, -0.4643612504005432, -0.22382697463035583, -0.1667764037847519, -0.055706433951854706, 0.005560511257499456, 0.1367318481206894, -0.055740341544151306, -0.2119288444519043, -0.2529353201389313, -0.10948111861944199, 0.10461652278900146, 0.21475975215435028, 0.0706419050693512, 0.07975172251462936, 0.18883424997329712, 0.3650290071964264, 0.302940309047699, -1.5603641271591187, -1.01151704788208, -0.38561585545539856, 0.025003310292959213, 0.1692817509174347, 0.32315027713775635, 0.38425108790397644, 0.33908963203430176, 0.06028655916452408, -0.12161280959844589, -0.13308098912239075, -0.29435986280441284, -0.5197742581367493, -0.5747289657592773, -0.5476547479629517, -0.34413978457450867, -0.2710013687610626, -0.3562392294406891, -0.2771170437335968, -0.07086456567049026, 0.10839653760194778, 0.06934778392314911, 0.23017144203186035, -0.005620953626930714, 0.10468531399965286, 0.1906154453754425, 0.1653345376253128, -0.27294203639030457, -1.3316805362701416, -1.0307008028030396, -0.50398188829422, -0.20026180148124695, 0.2523060739040375, 0.4128545820713043, 0.5673472285270691, 0.15448534488677979, 0.07676131278276443, 0.06417584419250488, -0.23421145975589752, -0.14342017471790314, -0.4150993824005127, -0.49425607919692993, -0.4626288115978241, -0.5388339757919312, -0.4164547622203827, -0.27315348386764526, 0.022661516442894936, 0.22031396627426147, 0.1958869844675064, 0.16246987879276276, 0.16102135181427002, 0.07101190090179443, 0.21955862641334534, 0.2229405641555786, 0.04393886402249336, -0.6132398247718811, -1.655189871788025, -0.9176489114761353, -0.3239637613296509, -0.0849156305193901, -0.06412825733423233, -0.011165639385581017, 0.431185245513916, 0.09658690541982651, 0.2996044158935547, 0.0902257040143013, -0.08146112412214279, -0.05379204452037811, -0.05985390022397041, -0.14644549787044525, -0.31630873680114746, -0.2855655252933502, -0.169309601187706, -0.03899935260415077, 0.07332798093557358, 0.17200937867164612, 0.23970535397529602, 0.15985393524169922, 0.12812773883342743, 0.021842898800969124, 0.1538274884223938, -0.049612488597631454, -0.03748655319213867, -0.612342894077301, -1.7745530605316162, -0.9879739284515381, -0.29231053590774536, -0.013755535706877708, 0.09698513895273209, -0.14698390662670135, 0.29321810603141785, 0.1554790884256363, 0.19615128636360168, 0.25130102038383484, 0.07888898998498917, 0.13270515203475952, 0.11493712663650513, -0.11083102971315384, -0.20297230780124664, -0.34387314319610596, -0.1453133076429367, 0.0024126295465976, 0.006218959577381611, 0.09616830945014954, 0.15173526108264923, 0.2101893573999405, 0.11682796478271484, 0.17105156183242798, 0.039176471531391144, -0.11624592542648315, -0.004832107573747635, -0.8511360883712769, -1.5923571586608887, -0.5818949937820435, -0.18118588626384735, -0.08566952496767044, 0.2565203607082367, 0.22405272722244263, 0.24666760861873627, 0.10572397708892822, -0.06955806910991669, 0.100357785820961, 0.06607147306203842, 0.010728937573730946, -0.11706866323947906, -0.10945938527584076, -0.12081334739923477, -0.12523160874843597, -0.09478029608726501, -0.024158528074622154, 0.02585454098880291, 0.07135568559169769, 0.0589950829744339, 0.15105561912059784, 0.15845686197280884, -0.015874549746513367, -0.21216583251953125, -0.2019273340702057, -0.3018610179424286, -1.1299984455108643, -1.3976346254348755, -0.4096260666847229, -0.016916939988732338, -0.05423685535788536, 0.061777930706739426, 0.3572976589202881, 0.4057321548461914, 0.07107039541006088, -0.11994680762290955, 0.08714402467012405, 0.042045220732688904, -0.05705853924155235, -0.008970518596470356, 0.0030000635888427496, 0.02797282300889492, -0.09715678542852402, -0.10420019924640656, -0.049832168966531754, 0.0371692031621933, 0.014600249007344246, 0.07604409754276276, 0.09111294150352478, 0.12269631773233414, 0.019466228783130646, -0.23900288343429565, -0.07875026017427444, -0.4256521165370941, -1.1585540771484375, -0.9695425629615784, -0.26970797777175903, -0.033295728266239166, -0.008839014917612076, 0.019642584025859833, 0.5013736486434937, 0.5951005816459656, 0.31106287240982056, 0.1393955647945404, 0.14602284133434296, 0.17183902859687805, -0.04253662750124931, 0.1157173290848732, 0.1388266235589981, 0.10847974568605423, -0.05981991067528725, 0.02536315843462944, -0.049504779279232025, -0.0347883403301239, -0.1179841086268425, 0.037855736911296844, 0.1720481514930725, -0.02018488571047783, -0.11949210613965988, -0.25620198249816895, -0.5041323304176331, -0.7739427089691162, -0.4985007643699646, -0.3904612362384796, -0.1137048676609993, -0.009508559480309486, 0.03486077859997749, 0.018468275666236877, 0.29068824648857117, 0.5794389247894287, 0.3338875472545624, 0.13477161526679993, 0.29721182584762573, 0.3248240053653717, 0.15654201805591583, 0.13203856348991394, 0.21640801429748535, 0.2268647700548172, 0.1578914225101471, 0.257415771484375, 0.19961918890476227, 0.06667929142713547, 0.09961260855197906, 0.10540622472763062, -0.18600744009017944, -0.28311774134635925, -0.302232950925827, -0.37244611978530884, -0.44309312105178833, -0.6539835333824158, -0.560282289981842, -0.36867251992225647, -0.1317126452922821, 0.009865310043096542, -0.03032766282558441, -0.023639459162950516, 0.19264285266399384, -0.10367270559072495, -0.1873888522386551, -0.08576885610818863, 0.2864316701889038, 0.5139467120170593, 0.5904608368873596, 0.5224095582962036, 0.44065794348716736, 0.30454114079475403, 0.46751517057418823, 0.3861403167247772, 0.17081408202648163, -0.020438574254512787, 0.13360320031642914, -0.08877108991146088, -0.03566097095608711, -0.014035042375326157, -0.31133729219436646, -0.5194472074508667, -0.5700206756591797, -0.7654799222946167, -0.3669843375682831, -0.14283180236816406, -0.061442866921424866, 0.03045022115111351, 0.019345100969076157, -0.01341560110449791, 0.024807479232549667, -0.06264888495206833, -0.32716673612594604, -0.3534245491027832, -0.5641060471534729, -0.49086830019950867, -0.7116230130195618, -0.8578983545303345, -0.447989821434021, -0.5822893977165222, -0.6674201488494873, -0.5479069352149963, -0.6241913437843323, -0.7240729928016663, -0.3523898124694824, -0.5235815644264221, -0.7112186551094055, -0.6135737299919128, -0.5253573060035706, -0.4729785919189453, -0.5139924883842468, -0.41976505517959595, -0.0692351832985878, -0.04588518291711807, 0.01949232816696167, 0.0059514120221138, -0.03232492879033089, 0.015104621648788452, 0.03354078158736229, 0.026374831795692444, 0.017791787162423134, -0.05820609629154205, -0.22680677473545074, -0.5028607845306396, -0.7156972289085388, -0.7177632451057434, -0.9000617861747742, -1.2049472332000732, -1.3119497299194336, -1.3950122594833374, -1.3160370588302612, -1.5140399932861328, -1.3886641263961792, -1.3529380559921265, -0.9916893243789673, -0.6502542495727539, -0.5207563042640686, -0.5051406025886536, -0.38679441809654236, -0.15049196779727936, -0.032539673149585724, -0.01648874022066593, 0.02633848413825035, 0.00883093848824501], [0.012941330671310425, 0.014646537601947784, -0.018382780253887177, 0.022245105355978012, -0.01438058726489544, 0.03259909525513649, 0.023062247782945633, -0.022809982299804688, -0.019028587266802788, 0.031264010816812515, 0.002214927226305008, 0.018419615924358368, -0.09466270357370377, -0.13360537588596344, -0.059210941195487976, 0.0003462906461209059, -0.0037327446043491364, 0.0301440991461277, -0.004479574039578438, -0.020795240998268127, 0.031733956187963486, -0.026075899600982666, -0.0036818906664848328, -0.030069373548030853, -0.003688894212245941, 0.02604653686285019, -0.0032373256981372833, 0.02559618279337883, -0.022125577554106712, 0.03200601413846016, 0.03320176526904106, 0.018137477338314056, -0.07557830959558487, -0.14603151381015778, -0.328939825296402, -0.38318875432014465, -0.4965968430042267, -0.6013273596763611, -0.6844152212142944, -0.8796992301940918, -0.9093519449234009, -0.8133490681648254, -0.6788654327392578, -0.8607171177864075, -0.8107522130012512, -0.8280960917472839, -0.9442241191864014, -0.526419997215271, -0.5498189926147461, -0.3342420160770416, -0.19359993934631348, -0.14978936314582825, -0.012203043326735497, 0.022507455199956894, 0.011578470468521118, -0.008792519569396973, 0.004778146743774414, -0.029055383056402206, -0.06422744691371918, -0.14340448379516602, -0.3021698594093323, -0.235559344291687, -0.5136595964431763, -0.8128862380981445, -1.0349547863006592, -1.27048921585083, -1.2545673847198486, -1.9536652565002441, -1.5671815872192383, -1.230924129486084, -0.9824705123901367, -1.1649892330169678, -1.2331242561340332, -1.1391682624816895, -1.6889859437942505, -1.2393369674682617, -1.0391908884048462, -0.9333195090293884, -0.7173311710357666, -0.6179155111312866, -0.44876569509506226, -0.15671667456626892, 0.016273781657218933, -0.02595061995089054, 0.026026714593172073, -9.95434820652008e-05, -0.06554512679576874, -0.22012636065483093, -0.3490583598613739, -0.42852044105529785, -0.5892713665962219, -0.8584241271018982, -0.9219740033149719, -0.9994027018547058, -0.9704045057296753, -1.0661025047302246, -1.4647493362426758, -1.517807126045227, -1.0526478290557861, -0.9580205678939819, -0.9189156293869019, -0.6979528069496155, -0.6806223392486572, -0.3187635540962219, -0.2095016986131668, -0.1403205543756485, -0.07024947553873062, -0.35079479217529297, -0.4161418676376343, -0.46269330382347107, -0.1039281114935875, 0.024024099111557007, 0.018999096006155014, -0.00821970496326685, -0.1987701952457428, -0.37933194637298584, -0.05983584001660347, -0.05548545718193054, -0.32395222783088684, -0.41261810064315796, -0.5023195147514343, -0.5188174247741699, -0.6873576641082764, -0.5061190128326416, -0.38107791543006897, -0.3724331855773926, -0.5374912619590759, -0.45566993951797485, -0.3097754120826721, -0.30176040530204773, -0.24833424389362335, 0.10037679225206375, 0.3298194408416748, 0.2886216640472412, 0.38431888818740845, 0.3014579117298126, 0.03283378854393959, -0.1615045964717865, -0.24432659149169922, -0.1629568487405777, 0.001813601702451706, 0.0023114383220672607, -0.2703597843647003, -0.2703726291656494, -0.04205421730875969, 0.10343905538320541, -0.16634702682495117, -0.37497127056121826, -0.1697152853012085, -0.077460877597332, -0.18388016521930695, -0.1299625039100647, -0.13098430633544922, -0.30039268732070923, -0.0016195470234379172, -0.042970314621925354, 0.020740605890750885, -0.03299008309841156, 0.027516815811395645, 0.03599739447236061, -0.024430496618151665, -0.08916547894477844, 0.07331514358520508, 0.4903786778450012, 0.06788908690214157, -0.23108749091625214, -0.6602472066879272, -0.2657116949558258, -0.012526554986834526, -0.028536267578601837, -0.4591119885444641, -0.41040781140327454, -0.004671407863497734, 0.06851466745138168, -0.16429564356803894, -0.14386196434497833, -0.1172076165676117, -0.07871299982070923, -0.22675161063671112, -0.3307127058506012, -0.37958988547325134, -0.4565838575363159, -0.48741286993026733, -0.47421374917030334, -0.46479594707489014, -0.3271438777446747, -0.37936729192733765, -0.19252558052539825, -0.23809075355529785, -0.1608247309923172, 0.041456133127212524, 0.30087244510650635, -0.09295309334993362, -0.35457664728164673, -0.174814373254776, -0.578456699848175, 0.007046325132250786, -0.22957834601402283, -0.6452744007110596, -0.27959826588630676, 0.06129935383796692, 0.15704958140850067, -0.128525972366333, -0.03585579991340637, -0.10413327813148499, -0.07198797166347504, -0.22108012437820435, -0.24214181303977966, -0.4639979302883148, -0.3708451986312866, -0.497760146856308, -0.4516844153404236, -0.4357309937477112, -0.21926450729370117, -0.2297871708869934, -0.14675340056419373, -0.16196005046367645, -0.009358826093375683, 0.06524736434221268, 0.11089727282524109, -0.17315182089805603, -0.25027763843536377, -0.014378226362168789, -0.694939911365509, -0.09236881136894226, -0.410148024559021, -0.5672299861907959, -0.43550363183021545, -0.1539844572544098, 0.08483722805976868, -0.007238449063152075, -0.025676865130662918, -0.2387804239988327, -0.09156987071037292, -0.15207664668560028, -0.1681499481201172, -0.25925952196121216, -0.3002226948738098, -0.3969267010688782, -0.3933265507221222, -0.37040120363235474, -0.27035874128341675, -0.1501392275094986, -0.13063839077949524, -0.07420480251312256, -0.0705781877040863, -0.21331669390201569, -0.15213632583618164, -0.26425403356552124, -0.16013500094413757, -0.3953997492790222, -0.3951551020145416, -0.08234800398349762, -0.4821893870830536, -0.48340070247650146, -0.7328804135322571, -0.4923493266105652, -0.1767912209033966, -0.23893088102340698, -0.13086846470832825, -0.13461068272590637, -0.0691167414188385, -0.16103756427764893, -0.09633848816156387, -0.10505937784910202, -0.1998693197965622, -0.597266435623169, -0.4140946567058563, -0.13447459042072296, -0.15206478536128998, -0.06332391500473022, -0.0520097054541111, -0.06172126531600952, -0.006949953734874725, -0.09909020364284515, -0.22237811982631683, -0.6808018684387207, -0.7078291773796082, -0.8912273049354553, -0.42750558257102966, -0.1073334813117981, -0.45894303917884827, -0.5009695887565613, -0.7993403673171997, -0.4452129602432251, -0.40216386318206787, -0.3348395824432373, -0.12422610074281693, -0.04020504280924797, 0.06281274557113647, 0.04103219509124756, 0.007878371514379978, 0.13429933786392212, -0.30391520261764526, -0.8176470994949341, -0.22112350165843964, -0.04923005402088165, 0.054794199764728546, -0.06612664461135864, -0.008601006120443344, -0.15975713729858398, -0.11850786209106445, -0.1581231951713562, -0.5787085890769958, -0.7107028365135193, -0.8309568762779236, -0.8129575252532959, -0.29900941252708435, -0.11932957917451859, -0.3750816285610199, -0.653436005115509, -0.49981528520584106, -0.39955925941467285, -0.20082677900791168, -0.09523088485002518, 0.012828810140490532, 0.0830262303352356, 0.2614947557449341, 0.2868369519710541, 0.19544002413749695, 0.35270383954048157, -0.5822159051895142, -0.8306728005409241, 0.026449717581272125, 0.3213357925415039, 0.09955111145973206, -0.045483194291591644, -0.03508954495191574, -0.1968448907136917, -0.15466974675655365, -0.2242276966571808, -0.7194932103157043, -1.0766358375549316, -1.149837613105774, -0.6359119415283203, -0.21152976155281067, -0.056251998990774155, -0.3546050786972046, -0.5950914621353149, -0.5172237753868103, -0.47185853123664856, -0.09962139278650284, 0.08123066276311874, 0.2650483548641205, 0.27382877469062805, 0.24591636657714844, 0.3866676092147827, 0.49107563495635986, 0.6150078773498535, -0.1272737979888916, -0.4648723006248474, 0.15890701115131378, 0.3115651607513428, 0.06956394761800766, 0.012077602557837963, 0.04984837770462036, 0.057567350566387177, 0.1284550577402115, 0.07641949504613876, -0.5140113830566406, -0.5414301156997681, -0.3475891351699829, -0.31132933497428894, -0.28993821144104004, -0.0034547371324151754, -0.1530325561761856, -0.3712846040725708, -0.5537011623382568, -0.2970416843891144, 0.10233143717050552, 0.27953478693962097, 0.3099725544452667, 0.31019070744514465, 0.30473852157592773, 0.40025410056114197, 0.5694073438644409, 0.40361499786376953, -0.19489464163780212, -0.12102001160383224, 0.20414921641349792, 0.24677670001983643, 0.2780780494213104, 0.19469909369945526, 0.1539631336927414, 0.29148632287979126, 0.337272584438324, 0.12265005707740784, -0.2470676451921463, -0.5227504968643188, -0.32714417576789856, -0.5843866467475891, -0.22010548412799835, -0.10077525675296783, 0.03113633766770363, -0.29368653893470764, -0.11004924029111862, 0.3481481373310089, 0.2814001739025116, 0.2824356257915497, 0.25566190481185913, 0.24304234981536865, 0.19031548500061035, 0.23495575785636902, 0.33154937624931335, 0.23868674039840698, -0.2346092313528061, -0.09457932412624359, 0.15095622837543488, 0.36045658588409424, 0.4114576578140259, 0.22344358265399933, 0.3365451395511627, 0.15165400505065918, 0.05117415636777878, 0.025224484503269196, -0.31579768657684326, -0.47844210267066956, -0.44816601276397705, -0.5922697186470032, -0.17288801074028015, -0.1312328726053238, 0.05977676436305046, -0.010957024991512299, 0.027354657649993896, 0.20720888674259186, 0.07545840740203857, 0.11232635378837585, 0.24316911399364471, 0.2792230546474457, 0.2728688418865204, 0.1955256462097168, 0.24377796053886414, 0.10033873468637466, -0.17820324003696442, -0.03343574330210686, 0.3136129081249237, 0.44791895151138306, 0.32538264989852905, 0.11271302402019501, 0.14675623178482056, -0.06567809730768204, -0.13760143518447876, 0.04741436243057251, -0.25179117918014526, -0.7677662968635559, -0.5229223966598511, -0.5205684304237366, -0.18359149992465973, -0.10626785457134247, -0.11577603965997696, -0.2616281509399414, -0.24918529391288757, -0.42739883065223694, -0.17641480267047882, -0.027651092037558556, 0.24326269328594208, 0.34469714760780334, 0.1593673825263977, -0.021339407190680504, -0.05090191960334778, -0.015362654812633991, -0.0038353134877979755, 0.2594446539878845, 0.42137762904167175, 0.3968026340007782, 0.21650534868240356, 0.08284489810466766, 0.07746913284063339, 0.1770138293504715, 0.12229281663894653, -0.10853096842765808, -0.31449779868125916, -0.5464472770690918, -0.6831857562065125, -0.4181894361972809, -0.27258384227752686, 0.03140667453408241, -0.04966932535171509, -0.2211611270904541, -0.6610230803489685, -0.4581179618835449, -0.33776357769966125, -0.19143745303153992, 0.09026870131492615, 0.20952792465686798, 0.0772937536239624, -0.047660622745752335, -0.11837082356214523, -0.04387819766998291, 0.16738256812095642, 0.3992067575454712, 0.3973923623561859, 0.333137184381485, 0.1748916506767273, 0.15611468255519867, -0.045927952975034714, 0.016576746478676796, 0.07501029968261719, -0.237343430519104, -0.34167760610580444, -0.6781184077262878, -0.8428218960762024, -0.3394196629524231, -0.28310465812683105, -0.2027851641178131, -0.03045552968978882, -0.22836779057979584, -0.476853609085083, -0.36654067039489746, -0.2702144980430603, -0.2695322036743164, -0.11808113008737564, 0.0021158060990273952, -0.028398945927619934, -0.2694472372531891, -0.18826159834861755, 0.17317727208137512, 0.2647743225097656, 0.25382623076438904, 0.2560642659664154, 0.17735356092453003, -0.1617162823677063, -0.10799110680818558, -0.12991660833358765, -0.05885612592101097, -0.05492356792092323, -0.48269936442375183, -0.4239181876182556, -0.6046372652053833, -0.9983099699020386, -0.24933238327503204, -0.15220767259597778, 0.007207919843494892, -0.15920861065387726, -0.25530296564102173, -0.2216203510761261, -0.3237443268299103, -0.15845036506652832, -0.10889283567667007, -0.21976949274539948, -0.3783925473690033, -0.4656562805175781, -0.49083948135375977, -0.3208191692829132, -0.3865584433078766, -0.1265258640050888, 0.1511143296957016, 0.09726428240537643, -0.014728114940226078, -0.1545957624912262, -0.15884119272232056, -0.22997751832008362, -0.30505409836769104, -0.23201651871204376, -0.7776954174041748, -0.6460435390472412, -0.810379147529602, -0.7864084839820862, -0.37567374110221863, -0.10055985301733017, -0.00036916136741638184, -0.1448838710784912, -0.33763331174850464, -0.3130227029323578, -0.5043851137161255, -0.39537036418914795, -0.3009319007396698, -0.5800567269325256, -0.5915030837059021, -0.4953281283378601, -0.514543354511261, -0.2703247368335724, -0.2790117561817169, -0.3035621643066406, -0.04631338268518448, 0.03507474809885025, 0.03578965365886688, 0.022864706814289093, -0.09098596125841141, -0.2733548581600189, -0.24597565829753876, -0.14167454838752747, -0.5107424259185791, -0.5154061913490295, -0.578533947467804, -0.6945620179176331, -0.5415007472038269, -0.13354571163654327, -0.027045566588640213, -0.04989118501543999, -0.33350640535354614, -0.5167165398597717, -0.7706990242004395, -0.5613893866539001, -0.998914897441864, -0.7294767498970032, -0.20343640446662903, -0.18282565474510193, -0.25033119320869446, -0.19418802857398987, -0.2420475333929062, -0.2593035399913788, -0.1563216596841812, -0.04886540025472641, -0.11203774064779282, -0.02387075312435627, -0.14040468633174896, -0.07088204473257065, -0.07611742615699768, -0.08557228744029999, -0.16704444587230682, -0.28412365913391113, -0.22852280735969543, -0.4133003354072571, -0.37160754203796387, -0.004820824135094881, -0.02544448710978031, 0.015818553045392036, -0.35616612434387207, -0.5266456007957458, -1.1536279916763306, -0.7675291299819946, -0.7428263425827026, -0.5874512791633606, -0.2906360924243927, -0.266511470079422, -0.18270522356033325, -0.15383318066596985, -0.25907841324806213, -0.2411191463470459, -0.2394661009311676, -0.12935175001621246, -0.14739690721035004, -0.04538414999842644, -0.05264079570770264, 0.14801810681819916, -0.035225484520196915, 0.16801384091377258, -0.08741751313209534, -0.1920059621334076, -0.20151451230049133, -0.1867813766002655, -0.12190262973308563, 0.02778666839003563, -0.011462178081274033, -0.014966318383812904, -0.3308587372303009, -0.6511608362197876, -1.054956316947937, -1.0625909566879272, -0.3077387809753418, -0.1739981770515442, -0.0343736857175827, 0.0016168931033462286, -0.14935243129730225, -0.08504294604063034, -0.12257208675146103, -0.12398619949817657, -0.1564166247844696, -0.10002365708351135, 0.028907794505357742, 0.014250119216740131, 0.12372785806655884, 0.036226462572813034, 0.022640695795416832, 0.15924888849258423, -0.29376089572906494, -0.3463400900363922, -0.29540058970451355, 0.052069082856178284, 0.041732802987098694, -0.023741263896226883, 0.013406321406364441, 0.00954156368970871, -0.0779406875371933, -0.5380352139472961, -0.9914302825927734, -0.49645158648490906, -0.03587761148810387, -0.13731175661087036, -0.15060971677303314, -0.06329325586557388, -0.11620885878801346, 0.055159226059913635, -0.13226372003555298, -0.168508380651474, -0.15979412198066711, -0.1668587625026703, -0.023031961172819138, -0.1715773642063141, -0.02222754992544651, -0.006567905191332102, -0.07295046746730804, -0.024776306003332138, -0.1250341385602951, 0.006143149454146624, -0.4961741268634796, 0.015278464183211327, -0.12010794132947922, -0.02443346008658409, -0.021168172359466553, -0.030912894755601883, -0.09631374478340149, -0.20299500226974487, -0.5619246959686279, -0.4804571568965912, -0.607072651386261, -0.6517717838287354, -0.7809047698974609, -0.49457019567489624, -0.32507985830307007, -0.4749095141887665, -0.6619818210601807, -0.31429365277290344, -0.2901436388492584, -0.3328857421875, -0.5615809559822083, -0.5400677919387817, -0.49558109045028687, -0.6878461241722107, -0.5952728986740112, -0.6826507449150085, -0.4372430145740509, -0.10607278347015381, -0.3406047224998474, -0.186741441488266, -0.09464213252067566, -0.009194783866405487, -0.01996706798672676, -0.0019070692360401154, 0.014933750033378601, -0.08483074605464935, -0.19283728301525116, -0.31088021397590637, -0.651049017906189, -1.1555148363113403, -1.541746735572815, -1.618180274963379, -1.2886910438537598, -1.447644829750061, -1.4536116123199463, -1.587878942489624, -1.7587473392486572, -1.6692938804626465, -1.808951735496521, -1.5146231651306152, -1.5318171977996826, -1.4417297840118408, -1.5154576301574707, -1.212280511856079, -0.680984377861023, -0.3621498644351959, 0.007715153973549604, -0.017809558659791946, 0.01383313536643982, 0.010934147983789444, -0.004290487617254257, 0.02996542677283287, 0.0092351995408535, -0.0036226920783519745, 0.006511635612696409, -0.12720616161823273, -0.2977093756198883, -0.3596789836883545, -0.5232762098312378, -0.6340811848640442, -0.682909369468689, -0.7778626084327698, -0.7072741985321045, -0.9777238368988037, -1.0218305587768555, -0.8715633153915405, -0.7042549848556519, -0.8211919665336609, -0.6870860457420349, -0.4919882118701935, -0.5253803730010986, -0.3572346866130829, -0.3471364974975586, -0.15833024680614471, 0.035041164606809616, -0.005128929391503334, -0.02318473532795906, -0.01398380845785141], [-0.00785423256456852, 0.004154376685619354, 0.031589996069669724, 0.013446923345327377, -0.0014195404946804047, -0.013232840225100517, 0.02979966625571251, 0.026241514831781387, -0.03542627766728401, -0.032783377915620804, 0.028877969831228256, -0.007218301296234131, -0.12109772861003876, -0.08633147180080414, -0.034102942794561386, 0.0074891927652060986, -0.03255187347531319, -0.02604806423187256, -0.03014112450182438, -0.026476338505744934, -0.015360483899712563, -0.033843882381916046, -0.011641336604952812, 0.005109470337629318, 0.0352604053914547, -0.01858660578727722, -0.03544537350535393, 0.0323302261531353, -0.01815950497984886, -0.02416827157139778, 0.010288812220096588, -0.011433886364102364, -0.021755579859018326, 0.0010749173816293478, -0.1051049456000328, -0.19443482160568237, -0.20431865751743317, -0.2904607057571411, -0.47545456886291504, -0.5132448673248291, -0.5949357748031616, -0.6878719925880432, -0.9105203747749329, -0.909578800201416, -0.8863472938537598, -1.0873218774795532, -0.7919817566871643, -0.5959514379501343, -0.5242447257041931, -0.2993074953556061, -0.12226685136556625, -0.08861938863992691, -0.008080307394266129, 0.02735862508416176, 0.026185497641563416, 0.03229314461350441, 0.03382108733057976, 0.011616334319114685, -0.059928689152002335, -0.10860372334718704, -0.25618335604667664, -0.16156788170337677, -0.22995777428150177, -0.5611916184425354, -0.6912105083465576, -0.79852694272995, -0.8565155863761902, -0.9535714387893677, -1.0573382377624512, -1.6125658750534058, -1.6237062215805054, -1.3496226072311401, -0.7047656178474426, -0.3008526563644409, -0.5120149850845337, -0.34962645173072815, -0.6296610832214355, -0.7918022274971008, -0.7197847962379456, -0.4995982348918915, -0.5017073750495911, -0.15815861523151398, -0.01763775944709778, -0.03246341273188591, -0.008188389241695404, 0.005986951291561127, -0.15146112442016602, -0.14746561646461487, -0.2579990029335022, -0.3431099057197571, -0.5626951456069946, -0.9449464082717896, -0.9245224595069885, -0.638876736164093, -0.5737298727035522, -0.4036277234554291, -0.19575463235378265, -0.21785633265972137, -0.16822393238544464, -0.08384373039007187, -0.16135051846504211, -0.08032193034887314, 0.09711228311061859, 0.04270339384675026, 0.10279255360364914, 0.15757311880588531, 0.06683733314275742, -0.17523352801799774, 0.018261080607771873, -0.2896489202976227, 0.01767548732459545, -0.013858553022146225, -0.015942251309752464, -0.07099920511245728, -0.2975374162197113, -0.31635332107543945, -0.6930659413337708, -0.6287866830825806, -0.5231053233146667, -0.3348209857940674, -0.6667693257331848, -0.3653948903083801, -0.2721802294254303, -0.05065406486392021, -0.1311347931623459, -0.2469474822282791, -0.14235807955265045, 0.09158404171466827, 0.03915762901306152, 0.11447407305240631, 0.16203352808952332, 0.01733252964913845, -0.20617413520812988, 0.06410034000873566, -0.048646215349435806, 0.15355326235294342, 0.35602056980133057, 0.2332790046930313, 0.11848565191030502, -0.160499706864357, -0.022106405347585678, 0.01813678815960884, -0.3957940340042114, -0.44328558444976807, -0.7514551281929016, -0.6163029074668884, -0.4273063540458679, -0.2116696983575821, -0.14165355265140533, -0.08612849563360214, -0.02349383383989334, -0.01283031702041626, -0.07295797020196915, -0.0659325122833252, -0.11440007388591766, -0.1484612226486206, 0.0010017046006396413, 0.10678146779537201, 0.1387213170528412, -0.0033429977484047413, 0.18219631910324097, 0.05334857851266861, 0.1094832792878151, 0.076124407351017, 0.25501325726509094, 0.4980264902114868, 0.44544288516044617, -0.009853108786046505, 0.027550887316465378, -0.12896321713924408, -0.3994915783405304, -0.8109404444694519, -0.7525932192802429, -0.313911110162735, -0.21417954564094543, -0.07847685366868973, -0.07675334811210632, -0.03713608533143997, -0.05776747688651085, -0.017583727836608887, 0.009220875799655914, -0.015323637053370476, 0.037669457495212555, -0.017292743548750877, -0.03832507133483887, -0.007003112696111202, 0.05289706215262413, 0.1331758052110672, 0.1034565344452858, 0.024953575804829597, 0.11422179639339447, 0.04486451670527458, 0.4592287838459015, 0.37426164746284485, 0.3387572169303894, 0.2780802249908447, -0.00035281089367344975, -0.32694366574287415, -0.31660422682762146, -1.1954246759414673, -1.2291747331619263, -0.39064088463783264, -0.13469576835632324, -0.06755837798118591, 0.15487103164196014, 0.05055614560842514, 0.12490260601043701, 0.1464473158121109, 0.04773280397057533, -0.07086747884750366, 0.0488421805202961, -0.09952869266271591, 0.0331532247364521, 0.047739483416080475, 0.059776172041893005, 0.048527397215366364, 0.11064689606428146, 0.03292060270905495, 0.11563573777675629, 0.15612557530403137, 0.47809046506881714, 0.6241071224212646, 0.10608720034360886, 0.2465403825044632, -0.053787961602211, -0.40164804458618164, -0.7671675086021423, -1.3399085998535156, -1.197045922279358, -0.33053702116012573, -0.18344199657440186, -0.22982065379619598, 0.08614300191402435, -0.011177098378539085, 0.08015915751457214, 0.11310745030641556, -0.006559567525982857, -0.057345952838659286, -0.1419743001461029, -0.23118722438812256, -0.14069341123104095, -0.04826614633202553, -0.07499393075704575, 0.05807846412062645, 0.25597649812698364, 0.22505956888198853, 0.1125492975115776, 0.43467697501182556, 0.6713104248046875, 0.631324052810669, 0.17018188536167145, 0.14680810272693634, -0.08410276472568512, -0.41116800904273987, -0.8071959614753723, -1.1511424779891968, -0.9266636371612549, -0.4367958605289459, -0.1893329620361328, -0.1650015264749527, 0.060159288346767426, 0.05313315615057945, 0.07852223515510559, 0.30663594603538513, 0.14686429500579834, -0.011680582538247108, -0.20692093670368195, -0.39218926429748535, -0.37202271819114685, -0.2245180904865265, -0.17471195757389069, -0.16237303614616394, -0.05680929496884346, 0.1595839262008667, 0.21377739310264587, 0.37812167406082153, 1.0290676355361938, 0.9925147294998169, 0.4620385766029358, 0.1208331286907196, -0.11459623277187347, -0.5217515826225281, -0.6624594926834106, -1.2337232828140259, -0.43628546595573425, -0.318323016166687, -0.11837684363126755, 0.08241904526948929, 0.21680499613285065, 0.29598045349121094, 0.237769216299057, 0.25149020552635193, 0.2839469611644745, 0.21727754175662994, -0.00942949391901493, -0.22602035105228424, -0.2848442792892456, -0.4120485186576843, -0.3326975703239441, -0.35400673747062683, -0.2996171712875366, -0.1644715666770935, -0.157589852809906, 0.40666916966438293, 1.168771743774414, 1.384056806564331, 1.0315064191818237, 0.019625553861260414, -0.18146808445453644, -0.37898698449134827, -0.6779592037200928, -0.8370795249938965, -0.2103942334651947, -0.1443445086479187, 0.14321887493133545, 0.07578559219837189, 0.1498105227947235, 0.09914865344762802, 0.08197562396526337, 0.1329214870929718, 0.23484046757221222, 0.33156952261924744, 0.024924837052822113, -0.20182974636554718, -0.2627088129520416, -0.26866304874420166, -0.23557709157466888, -0.3856475353240967, -0.5662223696708679, -0.6087817549705505, -0.6871303915977478, -0.10805215686559677, 0.5678179860115051, 1.2374603748321533, 0.7217395901679993, -0.25058290362358093, -0.10273008048534393, -0.43659505248069763, -0.7166873812675476, -0.40917134284973145, -0.1966797262430191, -0.0979304388165474, 0.2569379210472107, 0.08183925598859787, -0.03834499791264534, -0.08328783512115479, 0.1545596569776535, 0.17688682675361633, 0.22278743982315063, 0.23326054215431213, -0.06629059463739395, -0.17440252006053925, -0.34542039036750793, -0.3700341284275055, -0.32896071672439575, -0.38193008303642273, -0.475005179643631, -0.8629716634750366, -1.2305443286895752, -1.342528223991394, -1.2923716306686401, 0.011079960502684116, 0.25653159618377686, -0.2595694065093994, 0.006539806257933378, -0.3496931493282318, -0.6908152103424072, -0.24533240497112274, -0.04771817848086357, 0.11455705016851425, -0.07280544191598892, 0.07196157425642014, -0.08599577844142914, -0.001716561266221106, 0.15657547116279602, 0.23374751210212708, 0.3331392705440521, 0.15956714749336243, -0.0488729402422905, -0.3348628282546997, -0.4573076665401459, -0.36097973585128784, -0.22256383299827576, -0.10144341737031937, -0.16337788105010986, -0.2978154122829437, -0.5014881491661072, -0.9819725155830383, -1.3021010160446167, -0.6795694828033447, -0.15635372698307037, -0.24225743114948273, 0.09901725500822067, -0.27435076236724854, -0.623309314250946, -0.3745846450328827, -0.2301168143749237, -0.1255645602941513, -0.10246781259775162, -0.15181471407413483, -0.028674783185124397, 0.1118246540427208, 0.2194558084011078, 0.03995262831449509, 0.11111089587211609, -0.014267652295529842, -0.13492141664028168, -0.23325763642787933, -0.28820472955703735, -0.29110240936279297, -0.22484758496284485, -0.2080971598625183, -0.1124848797917366, -0.18482570350170135, -0.045747265219688416, -0.16923360526561737, -0.4013166129589081, -0.8473249673843384, -0.6629198789596558, -0.3050098121166229, 0.07091173529624939, -0.10135611146688461, -0.6899872422218323, -0.25284168124198914, -0.4552353322505951, -0.3521837890148163, -0.22985677421092987, -0.3434664309024811, -0.04848703369498253, 0.10105022042989731, 0.11362423002719879, 0.05876179412007332, 0.03818200156092644, -0.07995361089706421, -0.34385523200035095, -0.33115407824516296, -0.2541066110134125, -0.30237001180648804, 0.012412689626216888, -0.09302444010972977, -0.14957024157047272, -0.09086909890174866, -0.1879531592130661, -8.540401177015156e-05, 0.01180857140570879, -0.6384693384170532, -0.9446938037872314, -0.34501439332962036, -0.07442482560873032, -0.22769798338413239, -0.6914399862289429, -0.17898304760456085, -0.32774823904037476, -0.30416393280029297, -0.24901968240737915, -0.4878820478916168, -0.44184261560440063, -0.3606902062892914, -0.18679459393024445, -0.1314011961221695, -0.05302458629012108, -0.17420047521591187, -0.31830716133117676, -0.19866007566452026, -0.31293484568595886, -0.13661377131938934, -0.10760778933763504, -0.007050845772027969, -0.015896843746304512, -0.08422303199768066, 0.06237494572997093, 0.02067798376083374, -0.007751797325909138, -0.9253740310668945, -1.0424888134002686, -0.2270951271057129, -0.02602408267557621, -0.29408004879951477, -0.8019237518310547, -0.08342602849006653, -0.1437428891658783, 0.12583565711975098, 0.1488468199968338, -0.27339115738868713, -0.4261459410190582, -0.3445645570755005, -0.3339228332042694, -0.34411442279815674, -0.5510749816894531, -0.4627762734889984, -0.3351997137069702, -0.1093226745724678, -0.01383006852120161, 0.053544532507658005, 0.09834418445825577, 0.050902947783470154, 0.055963121354579926, 0.0019323599990457296, -0.054284434765577316, 0.011149645783007145, -0.006972186267375946, -1.0748928785324097, -1.112093210220337, -0.46429917216300964, -0.14334039390087128, -0.27944251894950867, -0.9228976368904114, -0.04166005924344063, 0.19591650366783142, 0.25044095516204834, 0.34359821677207947, 0.09521959722042084, -0.07781319320201874, -0.2163151204586029, -0.21663831174373627, -0.19125396013259888, -0.25370723009109497, -0.10199765115976334, -0.006169870030134916, 0.025596190243959427, 0.04516327381134033, 0.09740574657917023, -0.03897460177540779, -0.022079378366470337, 0.052731290459632874, -0.04655279219150543, -0.037934560328722, -0.017300546169281006, -0.047223251312971115, -0.7956942915916443, -0.7421757578849792, -0.33088967204093933, -0.03439987450838089, -0.41834235191345215, -0.30523595213890076, -0.12338297814130783, 0.2708388864994049, 0.10007371753454208, 0.1642877161502838, 0.03454629331827164, 0.20183861255645752, 0.06305288523435593, -0.06697411090135574, -0.02528964728116989, 0.005799946840852499, 0.039644792675971985, -0.011290819384157658, 0.019686264917254448, -0.05512170121073723, 0.009852133691310883, 0.017920788377523422, -0.03533713147044182, 0.09816306084394455, -0.005387516692280769, 0.01647770032286644, 0.1090887114405632, -0.016966380178928375, -0.45862826704978943, -0.5898582935333252, -0.23677177727222443, 0.031654831022024155, -0.3736991882324219, -0.16954268515110016, -0.044880516827106476, -0.027526630088686943, 0.17817021906375885, 0.09861183911561966, -0.09749078750610352, 0.17628388106822968, 0.15249885618686676, 0.03520293906331062, 0.0597773976624012, -0.00849117897450924, 0.021651078015565872, -0.04079331085085869, -0.025763927027583122, 0.02715383656322956, 0.11155155301094055, 0.06915419548749924, 0.07617796212434769, -0.018938669934868813, -0.04483528062701225, 0.2757132351398468, 0.10719886422157288, -0.13582178950309753, -0.4255548417568207, -0.5382044911384583, 0.0754435658454895, -0.0550396591424942, -0.43370866775512695, -0.8021435141563416, -0.11959845572710037, 0.11323290318250656, 0.07004813849925995, -0.010542835108935833, 0.01781645230948925, 0.13664411008358002, 0.039249543100595474, -0.011926940642297268, 0.0967651754617691, 0.11259941011667252, 0.08861169964075089, 0.12491977214813232, 0.09315895289182663, 0.06647064536809921, 0.1010795384645462, 0.0029360949993133545, -0.04063959792256355, 0.10034418106079102, 0.2036130130290985, 0.25101104378700256, 0.05776510760188103, -0.13787099719047546, -0.22422245144844055, -0.44507136940956116, -0.048586294054985046, -0.050784993916749954, -0.14326748251914978, -1.0903414487838745, -0.17671039700508118, 0.10115847736597061, -0.22730699181556702, -0.25790563225746155, -0.11782923340797424, -0.048182498663663864, 0.0026840469799935818, -0.04583318531513214, 0.07371378690004349, 0.11884334683418274, 0.17237380146980286, 0.12475799769163132, 0.05702456831932068, 0.09949906915426254, 0.018821561709046364, 0.09697273373603821, 0.0828733965754509, 0.0657704547047615, -0.023471297696232796, 0.07849700003862381, 0.1727444976568222, -0.05238113924860954, -0.1533149778842926, -0.18457245826721191, -0.06531906127929688, 0.02807963266968727, -0.03512377664446831, -0.5955843329429626, -0.056119419634342194, 0.22059017419815063, 0.05828460678458214, -0.11899278312921524, -0.27258118987083435, 0.01846475712954998, 0.1135939359664917, 0.2032153159379959, 0.11671865731477737, 0.14115466177463531, 0.02365797944366932, 0.06545083224773407, 0.05978427827358246, 0.10839495062828064, 0.007381158415228128, -0.16810454428195953, -0.11725117266178131, -0.05041886866092682, -0.18952623009681702, -0.09340880811214447, 0.021599795669317245, -0.2076287716627121, -0.1649758517742157, -0.12436312437057495, -0.028525400906801224, 0.012535713613033295, -0.014004673808813095, -0.6173253059387207, -0.20930539071559906, -0.1199926808476448, -0.09951262176036835, -0.08476106077432632, -0.0989610105752945, 0.008271908387541771, 0.24589607119560242, 0.14026300609111786, 0.0700121745467186, 0.19051909446716309, 0.24061523377895355, 0.24204513430595398, 0.19558309018611908, 0.02264840342104435, 0.08977919816970825, 0.06822706013917923, -0.10446688532829285, 0.005027429666370153, -0.19676992297172546, 0.13370727002620697, -0.015861863270401955, -0.19467438757419586, -0.41800615191459656, -0.11443272978067398, 0.01655203104019165, 0.02282857522368431, -0.028916483744978905, -0.13855105638504028, -0.07844078540802002, -0.4332330822944641, -0.6300956606864929, -0.415840744972229, -0.2309485226869583, -0.23171456158161163, -0.05121104046702385, -0.035191942006349564, 0.06446274369955063, 0.1120062842965126, 0.1904657781124115, 0.021934855729341507, 0.2091226875782013, 0.2124110609292984, 0.22835926711559296, 0.09040022641420364, -0.08590498566627502, -0.21146129071712494, -0.07082502543926239, 0.20718960464000702, 0.13227303326129913, 0.04466400668025017, -0.15203829109668732, -0.05800662189722061, -0.011895274743437767, -0.006020078435540199, 0.016684822738170624, 0.024190694093704224, -0.11152489483356476, -0.40369170904159546, -0.8303629159927368, -0.8926268219947815, -0.8358011841773987, -0.8926708102226257, -0.7821011543273926, -0.4674714505672455, -0.2073177993297577, -0.4077650308609009, -0.28848257660865784, -0.39414796233177185, -0.32968270778656006, -0.4354824423789978, -0.5782517194747925, -0.7202924489974976, -0.6159480214118958, -0.2218569815158844, -0.3246499001979828, 